{"type":"NeuralNetwork","sizes":[23,50,50,50,1],"layers":[{"weights":[],"biases":[]},{"weights":[[0.1188463345170021,0.025794299319386482,-0.1502864956855774,0.09517398476600647,-0.05380268767476082,-0.039898015558719635,0.10696010291576385,0.0007479219348169863,0.1625586897134781,-0.15005768835544586,-0.06526557356119156,0.17831428349018097,0.03815208747982979,-0.05306929722428322,-0.12463495880365372,0.11315982788801193,0.1978950947523117,0.11502152681350708,0.02335446886718273,0.03875855356454849,-0.06801477819681168,-0.14298945665359497,-0.10232725739479065],[-0.04531285911798477,0.1979985535144806,0.10548831522464752,-0.10245003551244736,0.03142186999320984,-0.19094082713127136,0.017988162115216255,-0.03099089302122593,-0.08804027736186981,-0.13321895897388458,0.05154937878251076,0.15255972743034363,0.16265667974948883,-0.12585891783237457,-0.1740068942308426,0.06431449204683304,0.08183012157678604,0.06722744554281235,0.059359967708587646,-0.12220367044210434,0.08020640164613724,-0.13855081796646118,-0.15783259272575378],[0.11147809028625488,-0.18396539986133575,0.1483185738325119,0.10870757699012756,-0.05614999309182167,0.08641978353261948,0.08216797560453415,-0.027094295248389244,0.09151837229728699,-0.17863698303699493,0.1072455644607544,-0.02700316160917282,-0.09254303574562073,0.08134263008832932,0.0551457554101944,-0.11253280192613602,0.015317779034376144,0.043519359081983566,0.0428478978574276,0.04818151518702507,-0.14238037168979645,-0.1407596319913864,-0.151411235332489],[-0.07221544533967972,-0.020833052694797516,-0.18258236348628998,0.07680954039096832,-0.13568398356437683,0.09731589257717133,-0.1972740888595581,0.17980138957500458,-0.1971154361963272,-0.03644227609038353,0.1087629646062851,0.14619334042072296,-0.029447056353092194,0.006804666947573423,0.12102600187063217,0.1576356291770935,-0.04872211068868637,0.14074894785881042,0.08110590279102325,0.007413955871015787,-0.15306362509727478,-0.014658072963356972,-0.16089966893196106],[-0.19978530704975128,0.1279006451368332,0.04249311983585358,0.04175933822989464,0.12115167826414108,0.16742175817489624,-0.18490618467330933,0.07044350355863571,0.029375992715358734,0.055903512984514236,-0.13263392448425293,0.0007002846687100828,0.09718947857618332,-0.1355486810207367,-0.06532551348209381,-0.11096156388521194,-0.07534455507993698,-0.14677026867866516,-0.018328852951526642,0.060278601944446564,-0.03616110235452652,-0.1523679792881012,-0.12377909570932388],[0.1716812551021576,0.04392806813120842,-0.4903275966644287,0.01150410994887352,-0.17002339661121368,0.008652642369270325,0.25000450015068054,-0.05360772833228111,0.1807927042245865,-0.46859320998191833,-0.2251419872045517,0.022073328495025635,0.08251579850912094,0.022445930168032646,-0.14378578960895538,0.0049133989959955215,-0.039091967046260834,0.10235567390918732,-0.02313597872853279,0.05603906884789467,0.04941660538315773,-0.008584237657487392,0.5343618392944336],[-0.129593625664711,0.15869008004665375,0.009182658046483994,0.05832012742757797,0.18717685341835022,-0.19527067244052887,-0.1157703548669815,-0.01975911669433117,-0.031145326793193817,0.08104237169027328,0.10245829075574875,-0.1381695568561554,-0.14720207452774048,0.1798871010541916,-0.16042838990688324,-0.1083717942237854,-0.08594382554292679,0.13931120932102203,-0.012278751470148563,-0.11466667056083679,0.11422111839056015,-0.19427184760570526,-0.03778468817472458],[-0.14974293112754822,-0.10935457050800323,-0.03910186514258385,0.1312617063522339,-0.18508917093276978,-0.16983571648597717,0.11531781405210495,-0.07578661292791367,-0.05880642682313919,0.14971484243869781,0.13572904467582703,0.06458013504743576,0.11268381029367447,-0.14185374975204468,-0.08114339411258698,0.18018758296966553,0.14848901331424713,0.028973614796996117,0.07083816081285477,-0.09789378941059113,0.1274721324443817,0.039733316749334335,-0.07097940146923065],[-0.15735584497451782,-0.12363231182098389,0.03859742730855942,0.18488356471061707,0.033315420150756836,0.09809655696153641,-0.17451733350753784,0.03932653367519379,0.152151420712471,0.16411688923835754,-0.15800651907920837,-0.03676869347691536,-0.11513737589120865,-0.13870541751384735,-0.1371128410100937,-0.17039722204208374,0.15953564643859863,-0.1444486677646637,-0.1387481689453125,0.18762293457984924,-0.020562712103128433,-0.02211688831448555,0.03433315455913544],[0.05001683905720711,-0.0675649642944336,-0.2793790102005005,0.1569526195526123,-0.11510148644447327,-0.052488043904304504,-0.310761958360672,-0.15628282725811005,-0.01435526181012392,-0.22060009837150574,-0.26131728291511536,-0.008128130808472633,-0.031202012673020363,-0.1680847853422165,-0.08484750986099243,0.19040517508983612,0.1666523665189743,-0.18455705046653748,-0.14042523503303528,0.1900835782289505,-0.01480086799710989,0.10074438154697418,-0.2763822078704834],[0.14018474519252777,0.02419116348028183,-0.1270272433757782,-0.13027064502239227,-0.019128158688545227,0.09694303572177887,0.15113236010074615,-0.0004198012757115066,0.02725706435739994,0.12036257237195969,0.11614568531513214,-0.04890435189008713,-0.001996382372453809,0.040066078305244446,-0.0388595350086689,-0.02048299089074135,0.004948930349200964,-0.08667393773794174,-0.13883323967456818,0.07087863981723785,-0.18380720913410187,0.1861013025045395,-0.11903558671474457],[-0.12395830452442169,0.12715023756027222,0.11195831745862961,-0.0883239135146141,0.06428118795156479,0.12326322495937347,-0.1154552772641182,-0.06684976816177368,-0.112333282828331,0.15582378208637238,-0.0032981561962515116,0.12241531908512115,0.16872775554656982,-0.08714377880096436,0.08982420712709427,0.06508409231901169,0.025785529986023903,0.04851890727877617,-0.024732565507292747,-0.14842696487903595,0.1124584972858429,0.018007537350058556,0.0715816468000412],[0.027835803106427193,-0.06682512909173965,-0.07820427417755127,0.19647648930549622,-0.05882277339696884,0.14168305695056915,-0.122645802795887,-0.17028678953647614,-0.07829251140356064,0.19282415509223938,-0.14700940251350403,0.1870885044336319,-0.13900509476661682,-0.061916057020425797,0.055290721356868744,0.06430508196353912,-0.17255748808383942,-0.01969323866069317,-0.14170482754707336,0.1435893028974533,0.1617482453584671,0.06593428552150726,0.18303345143795013],[-0.14619453251361847,-0.03822861984372139,-0.18060268461704254,0.11871097981929779,-0.12459411472082138,-0.12138978391885757,-0.1527489572763443,-0.057537246495485306,0.19681033492088318,-0.16718675196170807,-0.06721707433462143,0.1798986792564392,-0.142291858792305,-0.07348249107599258,0.06741685420274734,-0.04381725192070007,-0.10680561512708664,0.1881747543811798,-0.07915183901786804,-0.06438184529542923,0.13453654944896698,-0.18360459804534912,-0.17715759575366974],[0.19532489776611328,0.05774204060435295,-0.13606098294258118,0.17758147418498993,-0.13560648262500763,-0.1722743660211563,0.09921257942914963,-0.14682504534721375,-0.01970711164176464,0.14546321332454681,0.030984651297330856,-0.021250439807772636,-0.1417098045349121,0.10635745525360107,-0.0813392773270607,-0.07288294285535812,-0.11018485575914383,0.18366502225399017,-0.14925585687160492,-0.16255666315555573,0.12986063957214355,-0.03243099898099899,0.10284511744976044],[-0.08951025456190109,-0.09388414770364761,0.13093599677085876,-0.15127579867839813,0.07252456247806549,-0.1916850209236145,0.029716787859797478,0.03787651285529137,-0.18752308189868927,0.009670167230069637,0.010802031494677067,-0.060680992901325226,-0.08888980746269226,0.05467113107442856,-0.007200020831078291,0.17784062027931213,0.13313691318035126,-0.10624818503856659,-0.05967666208744049,-0.06601080298423767,-0.18669795989990234,0.014781275764107704,-0.12415796518325806],[-0.05117769539356232,0.17367741465568542,0.04071608558297157,0.12051113694906235,0.08474959433078766,0.1202257052063942,-0.006105850916355848,0.14956752955913544,-0.1640099138021469,-0.01639615371823311,0.019150586798787117,-0.07795850187540054,-0.14912806451320648,0.04176893085241318,0.04563046246767044,0.14198511838912964,0.040639728307724,0.17556236684322357,0.13383755087852478,-0.0607621930539608,-0.16463248431682587,-0.16422274708747864,-0.19892077147960663],[-0.09987585991621017,0.1760655790567398,0.13042227923870087,-0.08977058529853821,-0.03523440286517143,-0.10527977347373962,0.052326686680316925,-0.17385537922382355,0.1345149725675583,0.08419787883758545,-0.009552378207445145,-0.14127551019191742,0.13484494388103485,0.05885908007621765,-0.1164453849196434,0.12275373190641403,0.05320064350962639,-0.1775110512971878,-0.13363082706928253,-0.053222205489873886,0.1932525485754013,-0.043964777141809464,-0.09456625580787659],[0.12319807708263397,0.10050574690103531,-0.09060943871736526,0.15253297984600067,0.12576496601104736,0.1953096240758896,0.0879148319363594,0.01458524726331234,0.09412530064582825,0.03798931464552879,0.017624173313379288,0.1802876889705658,0.14855173230171204,0.18577831983566284,-0.09646337479352951,0.17554321885108948,-0.05184374377131462,0.17144018411636353,0.17311936616897583,-0.09868091344833374,0.10506322234869003,-0.13811422884464264,-0.09540511667728424],[-0.17657354474067688,-0.1549355834722519,-0.1792205274105072,-0.17427268624305725,0.175167515873909,0.17990636825561523,-0.14585646986961365,0.005087867844849825,0.008997113443911076,-0.12226489931344986,0.19149146974086761,0.1037757396697998,0.1348809152841568,-0.10044502466917038,0.019417019560933113,0.1288776993751526,-0.1911541223526001,-0.012761896476149559,-0.06738022714853287,0.13005627691745758,-0.18859955668449402,-0.09423653781414032,0.10682924091815948],[-0.054150212556123734,0.10865475237369537,-0.07969297468662262,0.037612851709127426,0.16392666101455688,-0.05812496691942215,0.34681111574172974,0.15537673234939575,-0.1435772329568863,0.04474281147122383,0.2767151892185211,0.05410868674516678,0.00757645582780242,0.15135696530342102,-0.16543203592300415,-0.11943875998258591,0.0745227038860321,0.13309408724308014,0.04633556306362152,-0.013977114111185074,-0.04400310292840004,0.07537970691919327,0.2957640290260315],[0.14827966690063477,0.026999138295650482,-0.13585565984249115,-0.026479585096240044,0.1691085696220398,-0.06683569401502609,0.11294572055339813,0.0763608068227768,-0.15945589542388916,0.09519434720277786,0.18557292222976685,-0.1871623396873474,0.042949266731739044,-0.09650841355323792,-0.16843320429325104,0.18868334591388702,0.057934679090976715,-0.1648964285850525,-0.06815400719642639,-0.1345990002155304,0.17650902271270752,-0.0012230087304487824,0.1788579225540161],[0.023360230028629303,-0.06396358460187912,0.06379633396863937,0.021182719618082047,-0.11540897935628891,0.04115135595202446,-0.0219572801142931,0.13703171908855438,0.012089870870113373,0.1408339887857437,0.1751260906457901,0.14546683430671692,-0.19922953844070435,-0.1188090443611145,0.12231230735778809,-0.0019796425476670265,-0.12282852828502655,-0.019608397036790848,0.15490858256816864,-0.08171970397233963,-0.13576143980026245,0.06384670734405518,0.07293376326560974],[-0.06569846719503403,0.09120842069387436,-0.1783810257911682,0.15898872911930084,-0.003516359953209758,0.04772844538092613,-0.04230821132659912,-0.023985693231225014,0.10436142981052399,0.10976964980363846,-0.0933341383934021,-0.12119275331497192,0.07340124994516373,0.03668341785669327,-0.012321030721068382,0.10805321484804153,0.06658535450696945,-0.10775106400251389,-0.02512221410870552,0.11478894203901291,0.0219733789563179,-0.029257528483867645,-0.15261979401111603],[-0.10179915279150009,-0.008794385939836502,0.03356489911675453,-0.17085719108581543,-0.14657661318778992,0.10923651605844498,0.15512558817863464,-0.011355592869222164,0.1387839913368225,0.08345188945531845,-0.08492957800626755,0.018393205478787422,-0.05400311201810837,-0.1950303167104721,0.09912607818841934,-0.02893110178411007,0.07777854800224304,-0.053410790860652924,-0.1404435783624649,-0.07196473330259323,-0.05421246588230133,0.10687959939241409,-0.012891030870378017],[0.06723985821008682,-0.009924524463713169,-0.0012637769104912877,0.15743297338485718,-0.15241435170173645,0.17884817719459534,0.07797009497880936,0.11572130024433136,-0.19102036952972412,0.16650032997131348,-0.1082678884267807,-0.12624192237854004,0.03943922743201256,0.0808536559343338,0.10047769546508789,0.061001669615507126,0.19196036458015442,-0.13979370892047882,-0.011238019913434982,-0.17308714985847473,0.10020354390144348,0.152101531624794,0.08661158382892609],[0.17944005131721497,-0.10212405025959015,-0.19524326920509338,-0.1445079743862152,0.14757108688354492,0.12675239145755768,0.061055738478899,-0.056445781141519547,-0.011722062714397907,0.06550095230340958,-0.1108282133936882,-0.10026317834854126,0.10631154477596283,-0.06500869989395142,-0.047957468777894974,0.1433483064174652,0.09305968135595322,0.029657170176506042,-0.019328195601701736,0.0018412770004943013,0.06447789072990417,0.018104106187820435,0.04424203559756279],[0.007047239691019058,-0.07782270014286041,0.10367438942193985,0.042371660470962524,-0.04841884970664978,0.21072426438331604,0.1647052764892578,-0.01267868559807539,0.04040108993649483,0.06525585055351257,-0.4745616614818573,-0.18831728398799896,-0.11507770419120789,0.1904415637254715,0.004251569509506226,0.11969064176082611,0.08798468858003616,0.18466584384441376,0.21952594816684723,0.15821383893489838,0.009827341884374619,0.048387352377176285,-0.17349223792552948],[-0.07560010254383087,0.11845625191926956,-0.15571309626102448,-0.08449794352054596,-0.15011094510555267,0.14374998211860657,-0.17913766205310822,0.08745238184928894,0.00283123180270195,0.1802317500114441,-0.11372498422861099,0.1972295343875885,-0.17859603464603424,0.14497123658657074,-0.187571719288826,0.1341102570295334,-0.04721866920590401,0.0736725851893425,0.01175404991954565,0.0825699120759964,0.08452494442462921,-0.11193227022886276,0.04643979296088219],[0.025943145155906677,-0.07124321907758713,0.059962671250104904,-0.023982547223567963,-0.08281003683805466,0.0825793519616127,0.19539275765419006,0.010291662998497486,0.005374144297093153,0.14289002120494843,0.1203656941652298,0.08390434086322784,-0.1027158573269844,0.047310784459114075,0.053427744656801224,-0.06619904190301895,-0.10079890489578247,0.0009443308226764202,0.17385636270046234,-0.015736479312181473,0.18830792605876923,0.10532671213150024,-0.00355026638135314],[0.0848313495516777,-0.10222351551055908,-0.06572151184082031,0.16389457881450653,-0.158267080783844,-0.016352731734514236,0.010466364212334156,0.17399096488952637,0.010771257802844048,-0.0957484170794487,0.08021638542413712,0.08527914434671402,0.09916539490222931,0.008033703081309795,-0.06195788085460663,-0.17031286656856537,-0.05003166198730469,0.11688432097434998,0.02584974654018879,-0.16695770621299744,-0.11323670297861099,0.18099497258663177,-0.10212654620409012],[0.03385110944509506,-0.07468517124652863,-0.1522071808576584,0.1391015350818634,-0.07687617093324661,0.018646251410245895,-0.10373935848474503,0.19286154210567474,0.0636277124285698,0.12013163417577744,0.10284551233053207,0.19558560848236084,-0.010377149097621441,0.027116574347019196,0.14827817678451538,0.19902169704437256,-0.13793806731700897,0.023698218166828156,0.1433194875717163,0.0035811427515000105,-0.17697416245937347,0.17086835205554962,0.08682463318109512],[-0.06577090919017792,-0.18412819504737854,0.007380001712590456,-0.13921882212162018,0.025437889620661736,0.02088562212884426,-0.05626958608627319,-0.12706875801086426,0.06731562316417694,-0.0908856987953186,0.10762334614992142,0.19840887188911438,-0.005108009558171034,-0.010156727395951748,-0.07888883352279663,0.07293332368135452,-0.1431746631860733,0.1488470733165741,0.19436541199684143,-0.12174344062805176,-0.029507940635085106,-0.050354816019535065,-0.19664090871810913],[0.11066022515296936,0.055850908160209656,-0.19394122064113617,-0.1317286640405655,0.19762100279331207,0.18735271692276,0.13593317568302155,0.14219245314598083,-0.18683981895446777,-0.1483926922082901,-0.19745656847953796,0.18007276952266693,-0.15228334069252014,-0.17377224564552307,0.009588578715920448,0.14730244874954224,0.017233744263648987,0.005781400483101606,-0.12184790521860123,0.03772974759340286,0.1419348418712616,0.1918962001800537,-0.04145585373044014],[0.18479929864406586,-0.09744354337453842,0.19374853372573853,0.16342268884181976,-0.0348006971180439,0.04793620854616165,0.06716200709342957,-0.025507910177111626,-0.03654233738780022,-0.04153340309858322,-0.18398800492286682,0.10051968693733215,0.0005625386256724596,0.09573221206665039,-0.11604494601488113,0.06895819306373596,0.16897360980510712,0.07706465572118759,0.010014289058744907,0.0996956154704094,-0.19771336019039154,-0.19827939569950104,-0.000990843866020441],[-0.04693620279431343,-0.002225296339020133,0.1718849092721939,0.1823507398366928,-0.10300638526678085,0.07774452120065689,-0.08861061185598373,-0.04209223389625549,-0.14396058022975922,-0.19624751806259155,0.12160204350948334,-0.12047296017408371,-0.10757803916931152,-0.10947014391422272,0.007374531589448452,-0.19864150881767273,-0.015118633396923542,0.12086872011423111,-0.02290039137005806,0.10485118627548218,-0.11240042001008987,0.12740521132946014,-0.1027199998497963],[-0.06899438798427582,-0.09409525990486145,-0.17814816534519196,-0.1311144232749939,-0.05260789394378662,-0.15639030933380127,-0.1982400268316269,-0.1295050084590912,0.1083701103925705,-0.07438480108976364,0.15987993776798248,0.1154843121767044,-0.001484569744206965,0.024581776931881905,-0.020682930946350098,-0.08554054796695709,-0.189131960272789,0.16185317933559418,0.14873844385147095,0.17580708861351013,-0.07148273289203644,0.10480291396379471,-0.18651920557022095],[-0.19281035661697388,-0.011358334682881832,0.1923811137676239,-0.010193205438554287,-0.04813080281019211,0.10570501536130905,0.13503910601139069,0.10081886500120163,0.06829313188791275,-0.08183392882347107,-0.042587876319885254,-0.003942378796637058,0.11888732016086578,0.000037728776078438386,0.1909170001745224,-0.11862614750862122,-0.17067933082580566,0.1818314492702484,0.10612349957227707,0.03397129103541374,0.11463077366352081,0.1130930706858635,0.04259536787867546],[0.05553382262587547,0.09600561112165451,0.07684739679098129,0.06493247300386429,0.014341155998408794,-0.11365658789873123,0.06853526830673218,-0.18185961246490479,-0.199261873960495,-0.13817577064037323,0.08381369709968567,-0.10656268149614334,0.10912629216909409,0.16657204926013947,0.10889119654893875,0.06202280521392822,0.167923241853714,0.09509272128343582,-0.13884465396404266,-0.05868283659219742,-0.15984666347503662,-0.19971035420894623,0.026156755164265633],[0.18773014843463898,0.0017700630705803633,-0.14388787746429443,0.17274710536003113,0.1338539719581604,-0.0649818703532219,0.06471777707338333,-0.02091071382164955,0.12762127816677094,-0.09399472177028656,-0.04797773435711861,0.07488949596881866,-0.10905914753675461,0.1702006757259369,0.17860117554664612,0.042652677744627,-0.10571697354316711,0.10273630172014236,0.18422022461891174,-0.0643632709980011,-0.08012676239013672,-0.023987511172890663,0.05218112841248512],[-0.12132012099027634,0.08996869623661041,-0.3635505139827728,-0.031168553978204727,-0.13604798913002014,0.2214544266462326,0.62530118227005,-0.054009709507226944,0.1656283438205719,-0.0437711700797081,0.9468076229095459,-0.22317488491535187,0.08593489974737167,0.3347676396369934,0.1588362455368042,0.20598936080932617,0.21348974108695984,0.012016740627586842,-0.14020788669586182,0.11392020434141159,0.05925848335027695,0.06435906141996384,0.10509593784809113],[0.11057866364717484,0.17134621739387512,0.1094759926199913,0.19785861670970917,0.16877144575119019,0.12901805341243744,0.02362740971148014,-0.13990218937397003,0.07129659503698349,0.16928507387638092,-0.05406865477561951,-0.1264432668685913,0.19997799396514893,-0.026648009195923805,-0.033551931381225586,0.003251053160056472,0.12267270684242249,-0.09411425143480301,-0.1929684430360794,-0.0285653043538332,-0.16709963977336884,-0.1294245570898056,0.07852356880903244],[-0.16962416470050812,0.07709556072950363,0.17031989991664886,0.06677383929491043,0.005665863398462534,0.08278382569551468,-0.0336962528526783,0.018196571618318558,0.07530912011861801,-0.050809841603040695,0.17510467767715454,-0.08155808597803116,0.07701444625854492,-0.07533685117959976,-0.05180875584483147,-0.14958590269088745,-0.17148129642009735,-0.17494338750839233,0.07964800298213959,-0.07582101970911026,0.1782645285129547,0.1466401219367981,0.11689681559801102],[0.07771971821784973,-0.09419655054807663,0.1918167620897293,0.12218324840068817,0.18527892231941223,-0.13155941665172577,-0.109246164560318,0.0008702548802830279,-0.039198022335767746,0.0028543665539473295,0.18052391707897186,-0.17303712666034698,0.07208048552274704,-0.03119421750307083,-0.06776868551969528,0.12865114212036133,0.008288384415209293,-0.007913104258477688,0.14655600488185883,-0.18614861369132996,-0.05968906730413437,0.052925772964954376,0.10395709425210953],[-0.15655139088630676,-0.10774751007556915,-0.021145375445485115,-0.02087610960006714,-0.003459239611402154,-0.0726424977183342,-0.11041750758886337,0.029947470873594284,0.1065497100353241,0.1154654324054718,0.13413481414318085,-0.09852249920368195,0.0674964040517807,0.09966222196817398,-0.1261613667011261,0.18725964426994324,-0.16361132264137268,0.14029599726200104,-0.07827117294073105,-0.09913922101259232,-0.01645853742957115,-0.11791815608739853,-0.07726693153381348],[0.1838049739599228,-0.14331966638565063,-0.1775393784046173,0.028862105682492256,0.1838175505399704,-0.13033641874790192,-0.1501462608575821,0.15272383391857147,-0.00027506324113346636,0.13629600405693054,-0.165573850274086,0.10182537883520126,0.1758301854133606,0.01914571411907673,-0.08517040312290192,-0.1958293616771698,-0.14807294309139252,0.1993485391139984,0.0814889594912529,0.08296079933643341,0.19883103668689728,0.030542081221938133,0.000925060419831425],[0.43811821937561035,0.09662964195013046,-0.8947051167488098,0.17510473728179932,0.0005617976421490312,0.012630514800548553,-0.22983196377754211,-0.00009203830995829776,-0.05070488527417183,0.146135151386261,-0.11878959089517593,0.1661268025636673,0.1734500378370285,-0.03754676133394241,0.09661001712083817,0.020132452249526978,0.09467214345932007,-0.15778927505016327,-0.13788534700870514,-0.1666845828294754,0.08544134348630905,-0.09617353230714798,-0.48609235882759094],[0.1094280257821083,0.15220311284065247,-0.07710130512714386,-0.1891784369945526,0.05494410917162895,-0.19427523016929626,0.05738353729248047,-0.05394893139600754,0.16836994886398315,-0.08222177624702454,0.11873219907283783,-0.13959148526191711,-0.1959928423166275,0.004813140258193016,0.08346085995435715,0.14529645442962646,-0.05288954824209213,0.17812049388885498,0.08618413656949997,0.19991925358772278,0.07564152777194977,-0.13049611449241638,-0.1544978767633438],[-0.183206707239151,-0.04366977512836456,0.12301024794578552,0.1486988663673401,0.049818214029073715,0.10954055935144424,0.09759332239627838,-0.08688794076442719,-0.19926154613494873,0.10810061544179916,0.07665415108203888,-0.06964386999607086,-0.0029186434112489223,-0.07039778679609299,0.12046970427036285,-0.07797366380691528,-0.028023436665534973,-0.0602622926235199,0.1222018226981163,0.02544594183564186,0.11049296706914902,-0.17829787731170654,0.19660791754722595],[-0.05386015400290489,0.07968640327453613,-0.12512466311454773,0.06017190217971802,-0.08839007467031479,0.0442458875477314,-0.14889559149742126,0.060020022094249725,0.07776027917861938,0.11097053438425064,-0.16757987439632416,-0.013950937427580357,-0.12138551473617554,0.06054086238145828,-0.09186125546693802,-0.17898331582546234,-0.14458076655864716,-0.07171394675970078,0.05129217356443405,0.09421750903129578,-0.11521996557712555,-0.14602690935134888,-0.07240951806306839]],"biases":[-0.006598178297281265,0.018855279311537743,-0.15164752304553986,-0.06501322984695435,-0.022272193804383278,0.14804427325725555,-0.06981086730957031,0.041048817336559296,0.07100235670804977,0.02957814559340477,0.08181822299957275,-0.08795703202486038,-0.09946156293153763,0.01888902485370636,0.10717935860157013,-0.1335049420595169,0.06702157109975815,0.04911857098340988,-0.0638832375407219,0.11138749122619629,-0.03854440525174141,0.11489526927471161,0.11044459789991379,0.174930140376091,-0.16806158423423767,-0.12000833451747894,0.09160378575325012,0.06306295096874237,0.19607771933078766,0.11606577038764954,-0.14916908740997314,-0.11659841984510422,-0.1937447041273117,0.03762553632259369,-0.15809838473796844,0.19671759009361267,-0.16041573882102966,-0.10729480534791946,0.04319790378212929,-0.028684673830866814,-0.1810450702905655,0.18401740491390228,0.13542500138282776,0.1297318935394287,0.09383486211299896,-0.13590100407600403,-0.036178044974803925,-0.046990785747766495,-0.04411349818110466,0.1756598949432373]},{"weights":[[0.06207168847322464,0.11063124239444733,-0.011543631553649902,0.17798015475273132,0.15099799633026123,0.23874187469482422,-0.15528538823127747,-0.10563579946756363,-0.011929304338991642,-0.0750989094376564,0.04846784472465515,0.05565257370471954,-0.10450366884469986,0.03581557795405388,0.056746095418930054,0.044001322239637375,0.1209607943892479,0.17386803030967712,0.22468262910842896,0.17229633033275604,-0.09050238132476807,0.13087832927703857,0.21840235590934753,-0.06451614201068878,-0.16996966302394867,0.08665303885936737,-0.02684340439736843,-0.10651174932718277,-0.17190010845661163,0.1765556037425995,-0.09265688061714172,-0.14648659527301788,0.19168362021446228,-0.007786288391798735,-0.11741022765636444,0.05059221014380455,0.1869005411863327,-0.12169153988361359,-0.05424923822283745,-0.10515204071998596,-0.14426518976688385,-0.04202285408973694,0.11350192874670029,-0.038070470094680786,-0.14986702799797058,0.1798836886882782,0.34425410628318787,0.1853487640619278,0.14206255972385406,0.1991967111825943],[0.04667353630065918,0.09916926175355911,0.0034197482746094465,-0.08881870657205582,-0.01247723214328289,0.430071622133255,-0.035534974187612534,0.15100207924842834,0.13987880945205688,0.23992463946342468,0.130787193775177,0.004116758704185486,0.047695886343717575,0.1160011813044548,0.16081467270851135,-0.03168129920959473,0.000631726230494678,-0.14456501603126526,-0.0004583170812111348,-0.05669335275888443,0.19710451364517212,0.2822626531124115,0.21207109093666077,0.18410591781139374,0.06090352684259415,0.13985532522201538,-0.06506765633821487,0.19400934875011444,0.02105618268251419,0.2021940052509308,0.25862234830856323,-0.09853211790323257,0.1854172796010971,0.1813216507434845,0.18137994408607483,0.19885191321372986,0.14350974559783936,0.09495709091424942,0.07165466994047165,0.09263815730810165,0.024772536009550095,0.08217553049325943,0.15145084261894226,0.006578659638762474,-0.1360154151916504,0.10800877958536148,0.0855955109000206,-0.0643065869808197,-0.09491614997386932,-0.15316766500473022],[0.2341325581073761,0.01537530031055212,-0.06992389261722565,-0.13693782687187195,0.10933021456003189,0.528155505657196,0.18293064832687378,0.11288674920797348,-0.04499547928571701,0.1788361519575119,-0.10714685916900635,0.006853495258837938,0.21681365370750427,0.08445243537425995,0.011495151557028294,0.10795188695192337,-0.19192153215408325,0.14652281999588013,0.1305055171251297,0.1247699111700058,0.10278034210205078,-0.03657178580760956,-0.11722724884748459,0.003558963304385543,-0.022441772744059563,0.073091521859169,0.05671720206737518,0.07190150022506714,-0.19277969002723694,-0.10373581945896149,-0.14204972982406616,0.1586710661649704,-0.0006613851874135435,0.021894661709666252,-0.0953003317117691,-0.15784162282943726,0.004539620131254196,-0.08400112390518188,0.0971800833940506,0.05550413578748703,-0.13937270641326904,0.002662688959389925,-0.1805981695652008,0.01650361344218254,-0.001348966732621193,-0.036013416945934296,0.3667412996292114,-0.08848758041858673,0.04133304953575134,-0.029203850775957108],[0.09001148492097855,-0.1905534267425537,0.27249178290367126,-0.19334211945533752,-0.10302039235830307,0.20144560933113098,-0.04396045580506325,-0.03750051558017731,-0.1455449014902115,0.02313101291656494,-0.056298453360795975,0.12795957922935486,0.06461544334888458,0.13772699236869812,0.1276293694972992,0.015085019171237946,-0.0884123146533966,0.1570204347372055,-0.07399899512529373,-0.056624334305524826,-0.14712516963481903,0.06078590825200081,0.05389265716075897,0.16348108649253845,-0.03150234371423721,-0.03324254974722862,0.19428685307502747,-0.036711182445287704,0.1025465652346611,0.1399572193622589,0.15804925560951233,0.011755182407796383,-0.154885396361351,0.15935812890529633,-0.03615274652838707,0.07888608425855637,0.11544777452945709,0.08677205443382263,-0.08779622614383698,0.10127594321966171,-0.15758538246154785,0.27106502652168274,-0.07092008739709854,-0.07894200831651688,-0.08080220222473145,0.0640694722533226,0.2420293688774109,0.057604219764471054,-0.15209387242794037,-0.0897078886628151],[0.2201330065727234,-0.14774024486541748,0.14394155144691467,0.049984049052000046,-0.007973616942763329,0.5596860647201538,0.10867825895547867,-0.15889796614646912,0.13829341530799866,-0.014164582826197147,-0.1524122953414917,0.0953335091471672,0.006901221349835396,0.06034676730632782,0.13066649436950684,-0.14542926847934723,0.05256711319088936,0.10184842348098755,-0.15084147453308105,0.15312376618385315,-0.022973043844103813,0.22046875953674316,0.08659543097019196,-0.09840082377195358,-0.025041792541742325,0.07267700135707855,-0.1492007076740265,0.19772575795650482,0.16050849854946136,0.1291068196296692,-0.041419945657253265,0.16532480716705322,-0.05152913182973862,0.21837440133094788,-0.11243656277656555,0.09828659892082214,0.002762085059657693,0.040403254330158234,-0.1350512057542801,-0.06642051786184311,-0.42386823892593384,0.19498750567436218,-0.12791568040847778,-0.02840523235499859,-0.010338115505874157,-0.10696180164813995,0.41179993748664856,0.16765530407428741,0.022256018593907356,-0.08900827914476395],[-0.03675752505660057,0.06753820180892944,0.06314079463481903,-0.1171417236328125,-0.19645501673221588,0.0033333953469991684,0.05152878165245056,0.020741865038871765,-0.07976678013801575,0.14551973342895508,0.15360647439956665,0.1694856584072113,-0.026399539783596992,0.15189702808856964,0.03693262115120888,-0.07859162986278534,-0.12574343383312225,-0.17743222415447235,0.13395583629608154,-0.13123469054698944,-0.15773357450962067,-0.14226612448692322,0.017211193218827248,-0.03636021167039871,0.013206081464886665,0.19417667388916016,-0.07125312089920044,-0.17340487241744995,-0.08387408405542374,-0.1024254560470581,-0.18543320894241333,0.05030450597405434,-0.08929920941591263,-0.0914575532078743,-0.0060930331237614155,0.13586629927158356,0.1184387132525444,-0.1424318253993988,0.12751051783561707,0.03547012433409691,-0.17529533803462982,0.20736098289489746,-0.14983440935611725,0.011337250471115112,0.1668211817741394,0.14007925987243652,0.030320480465888977,-0.1449631303548813,0.1597730815410614,-0.008729432709515095],[-0.05168929323554039,0.16637009382247925,-0.07025869935750961,0.014994303695857525,0.025422295555472374,0.33727923035621643,-0.1367097645998001,0.10908418148756027,-0.1377737671136856,0.015895016491413116,-0.009718394838273525,0.025177650153636932,-0.08791965991258621,-0.025631768628954887,0.14330385625362396,-0.033877432346343994,-0.12318301945924759,-0.10313790291547775,0.08948308974504471,0.03589864820241928,0.09184768795967102,-0.06915917247533798,0.20276080071926117,0.07545620948076248,0.045073024928569794,0.13237346708774567,-0.11734461039304733,-0.08779288828372955,0.11799468845129013,-0.12620209157466888,0.1544649451971054,-0.09483880549669266,-0.17697773873806,-0.11545786261558533,0.20968250930309296,-0.04497992992401123,0.19260121881961823,0.1585906744003296,0.07216145098209381,0.22325138747692108,-0.2222435474395752,-0.039824843406677246,0.1985929310321808,-0.04567332565784454,0.014061794616281986,0.13636060059070587,0.27526476979255676,0.09016504883766174,-0.1332886964082718,0.007441174238920212],[0.24544839560985565,-0.19716636836528778,0.1671483963727951,0.17529025673866272,0.1316143423318863,0.30933046340942383,-0.05440673604607582,-0.1765783429145813,0.03546541929244995,0.21317371726036072,-0.10672473907470703,-0.01315409503877163,0.1846921145915985,-0.10580699145793915,0.1397053450345993,0.04717760533094406,-0.026162324473261833,-0.19951258599758148,-0.05831734836101532,-0.17976754903793335,-0.013934035785496235,0.22584648430347443,-0.020211737602949142,0.0991406962275505,-0.017769306898117065,-0.12923912703990936,0.14041410386562347,0.010741282254457474,0.01967909000813961,0.03194859251379967,0.09248237311840057,0.17149151861667633,0.024069253355264664,0.2354072630405426,0.014107410795986652,0.17953474819660187,-0.03974805027246475,0.19730016589164734,0.11762836575508118,0.19422082602977753,-0.01278314646333456,0.20822401344776154,-0.058158423751592636,0.17652224004268646,0.12765775620937347,0.23029537498950958,0.2017434984445572,-0.1004289761185646,0.06024806573987007,0.11658189445734024],[0.2743564546108246,-0.14492730796337128,0.012611381709575653,0.03260297328233719,-0.1930038034915924,0.24073509871959686,0.10854186862707138,-0.09096380323171616,0.05965810641646385,0.1397814303636551,-0.10371055454015732,-0.1445687860250473,0.19520337879657745,-0.1391051709651947,0.05506030097603798,0.1982618123292923,-0.04971065744757652,0.0765504464507103,0.14317961037158966,0.03431994840502739,0.1361868977546692,0.24607093632221222,0.022915024310350418,0.01202465035021305,0.11818408966064453,-0.0832400843501091,0.19340215623378754,0.16340425610542297,0.10434941202402115,0.020336950197815895,0.10095061361789703,-0.10645589232444763,0.030319267883896828,-0.00757383881136775,0.26865774393081665,0.04700985550880432,-0.15601889789104462,-0.00904765259474516,0.24532270431518555,0.21182404458522797,-0.12917453050613403,-0.048334624618291855,0.1004534363746643,-0.07280050963163376,-0.15354691445827484,0.012457896023988724,0.02580956183373928,0.030898038297891617,0.09303313493728638,-0.1988217830657959],[-0.06390371918678284,-0.13326077163219452,-0.11107836663722992,0.03498309478163719,-0.15847337245941162,0.37716221809387207,-0.03901323676109314,-0.12708048522472382,0.07707810401916504,0.21476887166500092,0.22604377567768097,0.19860658049583435,0.18390794098377228,0.17723612487316132,0.041887879371643066,-0.17033183574676514,-0.18268083035945892,0.08624590188264847,-0.02935725264251232,-0.04339957609772682,0.16052885353565216,0.13281618058681488,0.04074590280652046,-0.10659795254468918,0.06808675825595856,-0.12275330722332001,-0.03548385202884674,0.04287457838654518,-0.08418640494346619,0.20046795904636383,0.03559666872024536,0.1775541603565216,0.19280707836151123,-0.07869250327348709,0.04434160143136978,0.07911702245473862,-0.16162854433059692,0.17319513857364655,-0.11858133971691132,0.01965480111539364,-0.5656892657279968,0.060175471007823944,-0.016646813601255417,0.24635805189609528,0.13334199786186218,0.0930698812007904,0.5268683433532715,0.03761085495352745,0.08446953445672989,0.1813003569841385],[-0.11717008054256439,-0.10082627087831497,0.027147581800818443,0.1876065582036972,0.036194853484630585,0.4233688414096832,0.022651659324765205,-0.1574341207742691,-0.1418929249048233,-0.035092294216156006,0.15358391404151917,-0.13738003373146057,0.2232513725757599,0.03070789761841297,0.1987331509590149,-0.19224774837493896,0.05164123699069023,-0.06176357343792915,0.1812501847743988,-0.057209499180316925,-0.14592787623405457,-0.12065620720386505,0.14309482276439667,0.10832372307777405,-0.04087555781006813,0.08479896187782288,-0.08325298130512238,0.25214269757270813,-0.1619238406419754,0.21404673159122467,0.21108153462409973,-0.13020899891853333,0.13971319794654846,-0.10709354281425476,0.22963255643844604,0.18227793276309967,-0.11815861612558365,0.11773472279310226,0.06000956892967224,-0.10349126160144806,-0.4660415053367615,0.09710395336151123,0.10061103850603104,-0.04557054489850998,0.1545993536710739,0.004164569079875946,0.5552892684936523,0.009752224199473858,0.09838879853487015,-0.1959785521030426],[-0.012988896109163761,-0.1872592270374298,-0.06274783611297607,-0.10141858458518982,-0.02090647630393505,0.718848466873169,-0.12383748590946198,0.14152780175209045,0.0421488955616951,0.09622661769390106,0.16942216455936432,-0.09683381766080856,0.2690280079841614,0.04194832593202591,-0.06347109377384186,-0.07126570492982864,-0.0013980295043438673,0.046101126819849014,0.17178316414356232,-0.12683400511741638,-0.12626153230667114,-0.07370804250240326,0.1876312792301178,0.08671285957098007,0.022609755396842957,0.03319463133811951,-0.005637794733047485,-0.0022087942343205214,-0.08952707052230835,0.1737329214811325,0.23814958333969116,0.09620162099599838,-0.02031826600432396,0.09026502817869186,0.11916744709014893,-0.1226034015417099,0.10911242663860321,-0.10669232159852982,0.07321902364492416,0.10460232198238373,-0.2799261808395386,-0.10760405659675598,-0.022348646074533463,0.13300998508930206,0.07331458479166031,-0.10961650311946869,0.08986076712608337,0.06518854200839996,-0.057496603578329086,0.12576445937156677],[0.18806904554367065,0.11883653700351715,0.06177511066198349,0.18772660195827484,-0.10776211321353912,0.30282965302467346,0.034817326813936234,0.13900159299373627,0.05879487469792366,-0.018433235585689545,-0.08927269279956818,-0.19726194441318512,0.09052038192749023,-0.13966967165470123,-0.04590049386024475,-0.10500878095626831,0.1532575637102127,0.10388170182704926,-0.12527018785476685,0.11828680336475372,-0.040165938436985016,0.09307700395584106,-0.058023810386657715,0.12575504183769226,-0.12249265611171722,0.2639673054218292,-0.035377465188503265,0.009343236684799194,0.04890155419707298,0.15848439931869507,-0.08801569044589996,0.2445123940706253,0.14361391961574554,-0.01642482355237007,0.24729269742965698,0.17337028682231903,-0.03688852861523628,-0.19360506534576416,0.07516288757324219,-0.12610679864883423,-0.4528776705265045,0.14218834042549133,0.03628097474575043,0.19883304834365845,-0.14933565258979797,0.03768640011548996,0.236810564994812,0.023333167657256126,-0.0661153718829155,-0.16738753020763397],[-0.11147494614124298,-0.0960288792848587,0.22015883028507233,-0.00374008365906775,0.0905182957649231,0.3161308765411377,0.0874340832233429,-0.0054921419359743595,0.021263230592012405,0.14727374911308289,0.12003562599420547,-0.07309745252132416,-0.07065997272729874,0.1317938268184662,0.2152591496706009,0.06417744606733322,-0.08809580653905869,-0.0011622157180681825,-0.16241733729839325,-0.13241825997829437,0.15172609686851501,0.14867864549160004,0.19324667751789093,0.11667932569980621,-0.12213253229856491,0.19847528636455536,0.22289489209651947,0.050835948437452316,-0.12702800333499908,-0.07657728344202042,-0.06285526603460312,0.20185066759586334,-0.16107289493083954,0.0993885025382042,0.0034567464608699083,-0.02481447532773018,0.016126804053783417,-0.14841166138648987,-0.08945374935865402,0.0008334002923220396,-0.3967398405075073,-0.08352448791265488,0.06843613088130951,-0.039639074355363846,-0.10992728173732758,0.09804315119981766,0.32955649495124817,-0.1540989875793457,0.0942130833864212,-0.07655739784240723],[-0.022992977872490883,-0.010624341666698456,-0.010550357401371002,-0.1173633560538292,-0.00654310779646039,0.36014464497566223,0.07755471765995026,0.1343029886484146,0.1291193813085556,0.11275923252105713,0.21802687644958496,0.15351049602031708,0.043653931468725204,-0.004841857589781284,0.22235047817230225,0.15444429218769073,-0.07385986298322678,-0.07802267372608185,-0.005341399926692247,-0.074368417263031,0.12439008057117462,-0.09379853308200836,0.19713951647281647,-0.031959645450115204,-0.013705356046557426,-0.04785165935754776,-0.07230903208255768,-0.058581240475177765,0.0037429656367748976,0.11349497735500336,0.14512242376804352,-0.09731246531009674,-0.0591258630156517,0.027806356549263,0.24604111909866333,-0.06343082338571548,0.1527712494134903,0.19153591990470886,-0.05418582633137703,0.0579538494348526,-0.4869527220726013,0.11881205439567566,0.044718701392412186,0.17725706100463867,0.17889632284641266,-0.11576595902442932,0.2799240052700043,0.1456189602613449,-0.15605038404464722,-0.044463787227869034],[0.10778538882732391,-0.11289992183446884,-0.12934254109859467,0.19647258520126343,0.041771672666072845,0.11970958858728409,0.0835760161280632,-0.08509059995412827,0.09643565118312836,0.2448025792837143,-0.056735552847385406,-0.07664041966199875,-0.13411368429660797,-0.04594048485159874,-0.10286655277013779,0.004100359510630369,0.0021450589410960674,0.14171332120895386,0.16302348673343658,0.16808834671974182,-0.04306693375110626,0.014091737568378448,0.24215511977672577,-0.028284601867198944,-0.16208255290985107,0.23233850300312042,-0.048746466636657715,0.15382666885852814,0.1931023746728897,0.061210617423057556,-0.04337341710925102,0.05638469383120537,0.10012950748205185,0.10913456976413727,0.055923327803611755,-0.009635377675294876,0.16540399193763733,0.18963219225406647,-0.09027741104364395,-0.047123491764068604,-0.32022327184677124,0.1662924438714981,0.003966955002397299,0.1597052663564682,0.08684639632701874,0.11572761088609695,0.1131424531340599,0.048599060624837875,0.18954502046108246,-0.10981643944978714],[-0.028076380491256714,0.15405133366584778,-0.07286635786294937,-0.16479121148586273,-0.15551599860191345,0.3855478763580322,0.18659508228302002,-0.0654444620013237,-0.01690426655113697,0.13943488895893097,0.2407899647951126,0.14457570016384125,0.02866266295313835,-0.15429383516311646,0.19667570292949677,0.19302555918693542,0.05817973613739014,-0.17267969250679016,0.08990731090307236,0.08667036145925522,-0.1833319067955017,0.01636444218456745,-0.04297256097197533,-0.017051156610250473,-0.16305403411388397,0.20734955370426178,0.17049680650234222,0.03320413455367088,0.10315019637346268,-0.13209934532642365,-0.06472065299749374,-0.0863942950963974,0.11240600794553757,0.04615207388997078,0.14958007633686066,0.17586322128772736,-0.029686061665415764,-0.19451801478862762,0.18869909644126892,0.21223591268062592,-0.28882065415382385,0.14211593568325043,-0.06218545883893967,0.014430760405957699,-0.08858592808246613,0.05069560185074806,0.3358865976333618,0.23740705847740173,-0.038324519991874695,0.11367423087358475],[0.15308286249637604,-0.06800463795661926,-0.14018464088439941,-0.06232032924890518,0.04282902926206589,0.31426018476486206,0.05799129232764244,0.05071428418159485,0.09846857935190201,-0.033982958644628525,0.20017358660697937,-0.040108129382133484,-0.011967174708843231,-0.18150414526462555,0.10137848556041718,-0.06279139965772629,0.007315752562135458,-0.16669517755508423,0.18173068761825562,-0.1500932276248932,-0.14466813206672668,-0.08879078924655914,0.2022789567708969,0.0731450766324997,0.08942212909460068,0.0864846259355545,0.1647762656211853,0.06834185868501663,0.025619830936193466,0.20014169812202454,0.1413455754518509,0.12881606817245483,-0.13482612371444702,0.19145339727401733,-0.10146762430667877,-0.1705676168203354,-0.13267922401428223,-0.10877680778503418,0.01292014867067337,0.23514589667320251,0.03281719237565994,-0.021647848188877106,-0.16108490526676178,0.07837288081645966,-0.17113006114959717,0.17457401752471924,0.024882420897483826,-0.025364108383655548,-0.11442822962999344,0.19949764013290405],[0.03463108837604523,-0.19604671001434326,0.08281640708446503,0.19574429094791412,0.02865738235414028,0.3752163350582123,-0.11306928098201752,0.18705087900161743,-0.08638603240251541,0.10951442271471024,0.18136458098888397,0.13013774156570435,0.1872193068265915,0.12502774596214294,0.20924882590770721,0.16509589552879333,0.04400694742798805,-0.1330459862947464,-0.028622735291719437,-0.16352693736553192,0.08243339508771896,0.12649689614772797,-0.004167759325355291,-0.10053268074989319,-0.16873382031917572,0.15007321536540985,0.1500614434480667,0.1679128110408783,-0.18625541031360626,-0.03960882127285004,-0.13296271860599518,0.2116655856370926,0.02343442104756832,0.06238150969147682,0.12254080176353455,-0.01886984333395958,0.01183964591473341,0.049564335495233536,-0.027432484552264214,0.07508115470409393,-0.13575655221939087,-0.1333446353673935,0.19221417605876923,0.10966326296329498,-0.0870366096496582,-0.14049161970615387,0.22544382512569427,-0.10180120170116425,-0.009495053440332413,-0.12048300355672836],[0.053046274930238724,0.1391863077878952,0.12700298428535461,0.009427106939256191,-0.009416609071195126,0.40658482909202576,-0.16060195863246918,0.08460961282253265,0.038314446806907654,0.14312179386615753,0.16141602396965027,-0.18339242041110992,-0.11026256531476974,0.0903775542974472,0.2688543498516083,0.19870074093341827,-0.0752900019288063,0.08803711086511612,0.17095714807510376,0.1667562872171402,-0.026973774656653404,0.0465366467833519,0.009864303283393383,-0.12268982082605362,-0.023363443091511726,0.043534666299819946,0.2494431734085083,0.15214259922504425,0.16765768826007843,-0.048367515206336975,0.2508085370063782,-0.09590477496385574,-0.09019862860441208,-0.014039886184036732,-0.0497845783829689,0.1930229514837265,-0.17472316324710846,-0.1125408262014389,0.21859003603458405,0.0049433521926403046,-0.04177199304103851,-0.023904947564005852,0.18775410950183868,0.1337876319885254,-0.012050097808241844,0.2803986370563507,0.04138945788145065,0.0003859038697555661,-0.1326783299446106,-0.10864122956991196],[0.059379976242780685,-0.18127292394638062,0.10218089073896408,0.11432310938835144,0.15137380361557007,0.5120450854301453,0.1696065366268158,-0.029051434248685837,0.08165580034255981,0.2153201550245285,-0.054537057876586914,-0.06349745392799377,-0.09666432440280914,-0.08575687557458878,0.062368396669626236,0.10150013118982315,-0.0029160857666283846,0.03899713233113289,-0.0942697748541832,-0.15685182809829712,0.07652386277914047,0.20483489334583282,0.22464650869369507,0.16048821806907654,-0.17154940962791443,-0.13592718541622162,0.02387203834950924,0.197694793343544,-0.09397778660058975,-0.12719395756721497,0.1718624234199524,-0.0825900137424469,0.07192617654800415,-0.05093719810247421,0.14519594609737396,-0.17893071472644806,0.18116027116775513,-0.029101725667715073,0.2392454296350479,0.11175709217786789,-0.2486644983291626,0.08941399306058884,0.04833400622010231,-0.11560220271348953,-0.09719124436378479,-0.07198970764875412,0.36691105365753174,0.17562992870807648,0.1288706362247467,-0.0985986515879631],[0.10259604454040527,-0.15665297210216522,0.1337294727563858,0.09834819287061691,-0.07725607603788376,0.27426204085350037,0.14252881705760956,0.12884847819805145,-0.09082940220832825,0.30581071972846985,0.2421918362379074,0.014732053503394127,0.19551675021648407,0.19724081456661224,0.17649804055690765,-0.1622825562953949,-0.14150214195251465,-0.11753277480602264,-0.06397304683923721,-0.10321296751499176,-0.048964813351631165,0.014480264857411385,-0.11640578508377075,-0.06982512027025223,-0.166372612118721,0.09795483201742172,-0.1203235611319542,0.2595977187156677,0.056002870202064514,-0.001572422799654305,0.23572678864002228,-0.049132090061903,0.08163080364465714,0.2216605842113495,0.21587006747722626,0.07120031118392944,0.095272496342659,0.18151617050170898,-0.08417722582817078,-0.12626996636390686,-0.3773442208766937,0.17051030695438385,-0.11188504099845886,0.22319792211055756,0.1252644658088684,0.07535567134618759,0.4921330511569977,0.16512992978096008,-0.15557189285755157,0.1430952101945877],[0.14019395411014557,0.02923988737165928,-0.06254597008228302,-0.15749937295913696,-0.08761637657880783,0.18882296979427338,0.164813831448555,0.16030217707157135,0.03188765421509743,0.30471962690353394,0.004472872242331505,-0.045497000217437744,0.14885292947292328,0.03664166107773781,-0.0023215655237436295,0.17939220368862152,-0.1969979852437973,0.16211283206939697,-0.11306178569793701,0.02096688374876976,0.042254459112882614,-0.0022452324628829956,0.154004767537117,0.029732437804341316,-0.12406334280967712,0.13469748198986053,0.18877990543842316,0.03728870302438736,0.09201083332300186,0.2334146946668625,0.22858034074306488,0.16147807240486145,-0.0959685742855072,0.22670358419418335,0.00931280106306076,-0.17132815718650818,-0.1538950800895691,-0.0979461520910263,0.24551451206207275,0.1220051646232605,-0.02952047437429428,0.13160966336727142,0.026291845366358757,0.05091995745897293,0.17655296623706818,0.011742129921913147,0.05644509941339493,0.2695038616657257,0.168983593583107,-0.006280688103288412],[0.05207362398505211,-0.10542074590921402,0.0008346333634108305,0.03792933374643326,0.11046801507472992,0.35641399025917053,0.11781013011932373,0.07529234886169434,-0.08181742578744888,0.23083755373954773,0.22468847036361694,0.14689569175243378,0.17949503660202026,0.13320374488830566,0.1791745126247406,0.19210878014564514,-0.1197388619184494,-0.0501294806599617,0.1219075545668602,-0.11153975874185562,-0.01994343288242817,0.24813029170036316,-0.011783980764448643,0.14529764652252197,0.08840848505496979,0.0345759391784668,-0.14421653747558594,0.1440301090478897,0.027438312768936157,0.19050782918930054,0.018325384706258774,0.028181402012705803,-0.1614140123128891,0.11806847155094147,0.1015368178486824,-0.045194853097200394,-0.06558915972709656,0.09948976337909698,0.022529618814587593,-0.0386822372674942,-0.0636916384100914,-0.04806904494762421,-0.17132994532585144,0.13818863034248352,-0.042030297219753265,0.21807873249053955,0.1885686218738556,0.0031286454759538174,0.13315242528915405,-0.05743546783924103],[0.10071419924497604,-0.17559309303760529,0.016257084906101227,0.13062866032123566,-0.10883942991495132,0.4181789457798004,-0.016783233731985092,-0.08853919804096222,-0.1561724990606308,0.278643935918808,0.11510992795228958,-0.14036324620246887,0.1925286501646042,0.041087985038757324,0.12386198341846466,-0.0824584811925888,0.1195717379450798,-0.11810022592544556,-0.08853372186422348,-0.05650852248072624,-0.1859913021326065,-0.03451721742749214,-0.021641209721565247,-0.1855851709842682,-0.07392709702253342,-0.006514455657452345,0.19932284951210022,0.2943696081638336,-0.15216493606567383,-0.037609074264764786,-0.0914619117975235,-0.08718527108430862,-0.13244245946407318,0.09445841610431671,0.2636224925518036,0.0815417692065239,0.18989141285419464,0.18955673277378082,0.23087382316589355,-0.05353895202279091,-0.4359320402145386,0.1622314155101776,0.045528098940849304,-0.029698140919208527,-0.018450839444994926,0.028306016698479652,0.1843770444393158,0.2773381769657135,0.16581124067306519,0.0031874447595328093],[-0.013605681248009205,-0.022900408133864403,0.16925600171089172,-0.07452817261219025,0.056071531027555466,0.38190779089927673,-0.19803257286548615,0.0008326037204824388,-0.09518943727016449,0.27265459299087524,0.2511080801486969,0.09641288220882416,0.028144471347332,0.10103922337293625,0.012774892151355743,0.06656346470117569,0.15206275880336761,0.08914527297019958,-0.012488562613725662,-0.037052273750305176,-0.16113223135471344,-0.13678652048110962,0.10236729681491852,0.08725829422473907,-0.07346594333648682,0.008922500535845757,0.03254927694797516,0.16414669156074524,0.12836973369121552,0.25203004479408264,0.04300019145011902,0.034124135971069336,-0.017414787784218788,0.20797081291675568,0.07222245633602142,0.01094743236899376,0.17316517233848572,-0.03349656984210014,-0.09312036633491516,0.22738420963287354,-0.26838555932044983,0.11055630445480347,-0.11835741251707077,-0.05179435759782791,0.19567956030368805,-0.00045143708121031523,0.04757410287857056,0.2357894778251648,-0.15384724736213684,0.04779951274394989],[0.014025050215423107,0.14091482758522034,0.005390079692006111,-0.12409082800149918,-0.08545050024986267,0.35254353284835815,0.14421768486499786,0.13167063891887665,0.08282765001058578,0.15528222918510437,0.20167654752731323,-0.16631688177585602,0.22873438894748688,0.12002607434988022,0.061343591660261154,0.1829165518283844,-0.15516169369220734,0.05764242634177208,-0.08538995683193207,0.1700664609670639,0.11598630249500275,0.06746476888656616,-0.021607816219329834,-0.10854625701904297,0.10326117277145386,0.012539256364107132,0.2167094647884369,0.14710895717144012,-0.057298846542835236,-0.04076782986521721,0.04487409442663193,0.19427861273288727,0.08108897507190704,0.2044556438922882,0.26299309730529785,0.005202179774641991,0.19512426853179932,-0.06907061487436295,-0.1121014654636383,-0.09389092028141022,-0.13494697213172913,-0.016999930143356323,0.11793757230043411,0.2279852032661438,0.10255975276231766,0.14182627201080322,0.11284106969833374,0.26940932869911194,-0.1399771124124527,-0.11551771312952042],[0.17662742733955383,-0.11661068350076675,0.19613775610923767,-0.02950260229408741,0.046661242842674255,0.5086087584495544,0.07489960640668869,-0.19651484489440918,-0.02645002491772175,-0.006860512774437666,-0.002905193716287613,0.12949684262275696,-0.07352808117866516,-0.15857206284999847,0.26927849650382996,-0.015530270524322987,-0.1343199908733368,-0.18980000913143158,-0.09422018378973007,0.021384263411164284,0.062459755688905716,0.06423469632863998,0.08606044203042984,0.06784701347351074,-0.05296708643436432,-0.10021749883890152,0.018589038401842117,0.07538008689880371,-0.035247500985860825,0.20542198419570923,0.19939981400966644,0.048103366047143936,-0.05190639570355415,0.2568708658218384,0.2244434356689453,0.049043919891119,0.16746953129768372,0.06915558874607086,-0.1065874844789505,0.1125480905175209,-0.2963489294052124,0.04050407558679581,0.13663263618946075,0.19750168919563293,0.006181030068546534,-0.0413384884595871,0.046470753848552704,-0.0356428362429142,0.03162403777241707,0.10580966621637344],[0.05998251587152481,-0.04714380204677582,-0.021471725776791573,-0.034893497824668884,0.13329072296619415,0.2206173688173294,0.12256485223770142,0.13452789187431335,-0.06466830521821976,0.017884882166981697,0.1209789514541626,0.06293068081140518,0.22555337846279144,0.11971114575862885,0.2120935469865799,-0.16374321281909943,-0.015068783424794674,0.025469396263360977,-0.10301318764686584,0.08769312500953674,-0.1570223718881607,0.22460611164569855,0.22038714587688446,0.08486435562372208,0.057190798223018646,0.05476721376180649,0.03486444801092148,0.033968135714530945,-0.11927871406078339,0.028882233425974846,0.12091822177171707,0.10185293108224869,-0.032732993364334106,0.09407857805490494,-0.005698430351912975,0.01209260057657957,0.17517462372779846,0.05018863081932068,0.24167533218860626,-0.06721663475036621,-0.3541370630264282,-0.11246795952320099,0.16104544699192047,0.16409559547901154,0.06894936412572861,0.023928428068757057,0.32421231269836426,0.0865461528301239,0.16750797629356384,-0.16370269656181335],[0.0002833836479112506,0.04818568006157875,-0.123418889939785,0.09574557095766068,-0.05701294168829918,0.1687331199645996,0.12965592741966248,-0.02495446801185608,0.002048355992883444,0.12447672337293625,-0.04535456374287605,-0.0006042631575837731,-0.06076650321483612,0.1342543363571167,0.2171030044555664,-0.061983853578567505,-0.006673059426248074,-0.18524464964866638,-0.1516209840774536,-0.18866682052612305,-0.0984259620308876,0.21482685208320618,0.047361359000205994,-0.16458174586296082,0.1630556881427765,-0.10517940670251846,0.18792852759361267,0.14400847256183624,-0.1157183051109314,0.13392752408981323,0.21620620787143707,-0.06639690697193146,-0.19192682206630707,0.042318377643823624,-0.11662397533655167,-0.12066937237977982,-0.08940403908491135,0.05527433753013611,-0.07498151808977127,0.23481178283691406,-0.2860809564590454,0.1825675070285797,0.15012332797050476,0.12152563780546188,-0.0774713009595871,-0.12016782909631729,0.2895888686180115,0.16489112377166748,0.028587639331817627,-0.15275982022285461],[-0.03260262310504913,-0.18823124468326569,-0.1475597321987152,-0.08885244280099869,0.09698323905467987,0.08750343322753906,-0.11845752596855164,-0.1493852138519287,-0.0382244847714901,0.11696681380271912,-0.05589620769023895,-0.14148028194904327,-0.08874216675758362,0.00690658250823617,-0.057910799980163574,0.14612461626529694,0.1407102644443512,-0.11793598532676697,0.0678328275680542,-0.04200483113527298,0.12358147650957108,0.19987860321998596,-0.12875807285308838,-0.1189272478222847,0.07662069797515869,0.14666298031806946,-0.12500107288360596,0.0792095959186554,0.1673855036497116,0.1435609757900238,-0.010377738624811172,0.21938887238502502,0.13007132709026337,0.17538249492645264,0.039556413888931274,-0.006518772803246975,0.10489930212497711,0.08904605358839035,-0.10606314986944199,0.19752901792526245,-0.30663833022117615,0.18012160062789917,-0.013192751444876194,-0.1489993929862976,-0.0338645875453949,0.2269631326198578,0.4245097041130066,0.0753197893500328,0.06861893087625504,-0.1074366569519043],[0.14380279183387756,-0.07657958567142487,0.08283305913209915,-0.012306470423936844,-0.12599340081214905,0.5549072027206421,-0.16483384370803833,-0.1900591403245926,0.019832974299788475,0.13303235173225403,0.02697855792939663,0.09276645630598068,-0.056172795593738556,0.14045263826847076,0.04711601510643959,-0.11681331694126129,-0.14557364583015442,-0.04381082206964493,0.1523018777370453,-0.027438458055257797,0.08701933175325394,0.05224635824561119,0.18027061223983765,0.02598891220986843,0.16880066692829132,0.09797520190477371,-0.16429224610328674,0.1756630390882492,-0.13647592067718506,-0.06915310770273209,0.1376722902059555,-0.09234128147363663,-0.08704401552677155,-0.07249358296394348,0.11484108120203018,0.10875547677278519,0.09390252828598022,0.16189301013946533,0.057073842734098434,0.0631721094250679,-0.5295274257659912,0.08497951179742813,-0.06662550568580627,0.10346799343824387,-0.18070407211780548,-0.1841627061367035,0.5692340135574341,0.07134933024644852,-0.08836046606302261,0.073780357837677],[-0.1304115355014801,-0.08297467976808548,0.06395050138235092,0.0962381586432457,0.014225496910512447,0.40441444516181946,-0.18974317610263824,-0.09814368188381195,-0.1256486177444458,0.18470267951488495,0.004264136776328087,0.11195383220911026,0.013072273693978786,-0.11847364157438278,-0.09533269703388214,-0.03619493171572685,0.02506236545741558,-0.1827148050069809,0.25095316767692566,-0.030456801876425743,-0.03938081115484238,-0.04806384816765785,0.14836101233959198,0.04694386199116707,-0.023488124832510948,0.21142452955245972,0.18458813428878784,0.0004904259694740176,0.008724548853933811,0.06897684931755066,-0.12364301830530167,0.09766346961259842,0.1283160299062729,0.07694923132658005,0.09184353053569794,0.14787065982818604,-0.01717914454638958,-0.05699301138520241,-0.006703599356114864,0.2033308446407318,-0.4147220551967621,0.08097080886363983,-0.16119466722011566,0.1600990891456604,0.07987027615308762,0.19899126887321472,0.15217819809913635,-0.004904630593955517,0.1870194375514984,-0.09609060734510422],[-0.09645820409059525,-0.026242569088935852,0.1835625022649765,0.19838067889213562,-0.0003279468510299921,0.46255528926849365,0.007632590364664793,0.1475229561328888,0.12717655301094055,-0.0792216882109642,0.1832956224679947,0.06992017477750778,0.17740195989608765,0.16473287343978882,-0.10331297665834427,-0.1239447146654129,0.048085667192935944,-0.1896057277917862,0.18476711213588715,0.14494405686855316,-0.15304683148860931,0.12012142688035965,-0.18991796672344208,-0.17320214211940765,-0.17470383644104004,-0.006533635780215263,0.15147368609905243,0.004114579409360886,-0.14108425378799438,0.035620108246803284,0.030970802530646324,0.07334113121032715,-0.12836551666259766,0.03064708039164543,0.13517411053180695,0.18751193583011627,0.1473005712032318,-0.13829031586647034,0.06473750621080399,0.008630182594060898,-0.37912729382514954,-0.03441210836172104,-0.0005076712695881724,0.16946469247341156,-0.02798633463680744,-0.17866627871990204,0.45053958892822266,0.08395253866910934,0.14939939975738525,0.11679767072200775],[0.09253107756376266,0.10548851639032364,0.19264617562294006,-0.19547371566295624,-0.09096257388591766,0.22315824031829834,0.06988099962472916,0.10466215014457703,0.020254606381058693,0.32845595479011536,0.2860874831676483,-0.10871976613998413,-0.0495271310210228,0.14946621656417847,0.29147401452064514,0.0334191657602787,-0.14370864629745483,0.14329282939434052,0.22358417510986328,-0.12247828394174576,0.11671413481235504,-0.08919297903776169,0.2333848923444748,0.14996252954006195,-0.1368957906961441,-0.015441883355379105,0.02345941960811615,0.0681997761130333,0.01816328428685665,0.07267805188894272,-0.014379478991031647,-0.05595539137721062,0.0070919799618422985,0.1285894215106964,0.16110578179359436,0.1951189935207367,0.0854274183511734,-0.14368422329425812,0.2487102448940277,0.2400626540184021,-0.02092784456908703,0.19918248057365417,0.06213758885860443,0.1407458782196045,-0.0011679994640871882,0.02429930865764618,0.0180635005235672,0.08922084420919418,-0.12191183120012283,0.1923227161169052],[0.2404659539461136,0.10917171835899353,0.2292727679014206,-0.19402159750461578,0.08177167177200317,0.11442890018224716,-0.1985589563846588,-0.06516363471746445,-0.07962937653064728,0.25964757800102234,0.1712183803319931,-0.17464570701122284,0.07602263242006302,-0.08105383813381195,0.10027190297842026,-0.0036172564141452312,0.1455053836107254,0.04288679361343384,-0.11902374774217606,0.04252958297729492,-0.03440162539482117,-0.1058277115225792,0.13325758278369904,-0.0676281526684761,0.12629003822803497,0.0954870656132698,-0.04001973569393158,-0.040293432772159576,0.006821660790592432,0.09606536477804184,-0.04602161794900894,0.1174444779753685,-0.18331271409988403,0.09239643812179565,-0.1281619817018509,-0.0393080860376358,-0.1443391740322113,-0.07388939708471298,0.2644587755203247,-0.03260733187198639,-0.45173460245132446,0.10067888349294662,0.027021219953894615,-0.03043656423687935,-0.18514667451381683,0.195589080452919,0.26099884510040283,0.22958551347255707,-0.15691064298152924,-0.1937417984008789],[-0.051266707479953766,0.18462786078453064,0.17162352800369263,-0.05340302363038063,0.04572797194123268,0.41957467794418335,0.007113873027265072,0.09070928394794464,0.064008928835392,0.13426750898361206,0.14171850681304932,0.0037882693577557802,0.16336947679519653,-0.13210952281951904,0.17484807968139648,0.11124411970376968,0.08767331391572952,-0.06822390109300613,-0.05018899217247963,-0.1541895866394043,-0.0242087934166193,-0.07298629730939865,0.11827436834573746,-0.12541510164737701,0.12348367273807526,0.010402340441942215,-0.010211873799562454,0.19927363097667694,-0.09721995145082474,0.006754179950803518,0.06940213590860367,0.010552790015935898,0.08610707521438599,0.04202618449926376,0.18881097435951233,0.09670441597700119,0.02355450764298439,0.1105959415435791,-0.046224478632211685,0.21423107385635376,-0.4534589946269989,0.056425195187330246,0.08940787613391876,-0.16506779193878174,-0.11322018504142761,-0.027198659256100655,0.46973294019699097,0.09429220110177994,-0.08337749540805817,-0.04744436591863632],[0.1760571300983429,-0.19793416559696198,0.23478253185749054,-0.01796218939125538,0.14353634417057037,0.3291070759296417,-0.14771997928619385,0.17368783056735992,0.03161365166306496,0.25126245617866516,0.12899090349674225,-0.09302614629268646,0.0033744496759027243,-0.17924733459949493,-0.015021412633359432,-0.10725586861371994,0.01982846111059189,-0.19201013445854187,0.05913745239377022,-0.16154807806015015,-0.1966778039932251,0.23062916100025177,0.0365079790353775,-0.09737706929445267,0.17611517012119293,0.21461670100688934,0.20477737486362457,-0.07019404321908951,-0.058369893580675125,0.0528172068297863,0.1588110327720642,0.05024561658501625,-0.18473507463932037,-0.04151362553238869,0.2284766584634781,-0.18915005028247833,0.0986376702785492,0.13335292041301727,0.05563516914844513,-0.012084630317986012,-0.2989885210990906,0.06267168372869492,-0.1983640193939209,-0.12897296249866486,-0.11497272551059723,0.1885533481836319,0.16167162358760834,0.04915420711040497,0.005652829073369503,-0.1424538642168045],[0.03335710987448692,-0.1888708919286728,-0.03977032005786896,0.12217722088098526,0.12343131005764008,0.7656033635139465,0.16565078496932983,0.12514938414096832,-0.17222584784030914,0.3222004175186157,0.05802454799413681,0.014431579038500786,-0.018816210329532623,0.008844957686960697,0.19717802107334137,0.09334201365709305,0.18735678493976593,0.1747107356786728,0.15987999737262726,0.060242604464292526,0.0845549926161766,-0.11261430382728577,-0.07943347841501236,0.09100134670734406,0.06122156232595444,0.003145388560369611,-0.032952576875686646,0.06645705550909042,-0.1268751472234726,0.23176291584968567,0.022588564082980156,0.017024414613842964,-0.05096634104847908,0.021535003557801247,0.14096678793430328,-0.02995491959154606,-0.10427599400281906,0.08637609332799911,0.09630066156387329,0.12330789864063263,-0.6808240413665771,0.1004338413476944,0.07337336987257004,0.2671116292476654,0.009485810995101929,0.14581136405467987,0.34027817845344543,-0.03834090381860733,0.019156206399202347,0.057021234184503555],[0.09677411615848541,0.03426883742213249,-0.1392398476600647,-0.014550689607858658,0.024985073134303093,0.5103820562362671,-0.1330612599849701,-0.13468337059020996,0.14297175407409668,0.19616149365901947,-0.09371474385261536,-0.05453430488705635,0.2091713845729828,0.010476122610270977,-0.07161851227283478,0.04884191229939461,-0.058338310569524765,-0.11055197566747665,0.20153918862342834,0.035641491413116455,-0.07772425562143326,0.01799008436501026,0.15592776238918304,-0.11847255378961563,-0.16109305620193481,-0.02644156478345394,0.17131656408309937,0.121775321662426,-0.12546628713607788,0.1895277500152588,0.172349750995636,-0.07065428048372269,-0.14034901559352875,0.13957029581069946,0.2322545349597931,-0.08680791407823563,-0.05319881811738014,0.05229061469435692,0.2015271633863449,0.1104825884103775,-0.12321916967630386,0.2159893810749054,0.003945912700146437,0.19227662682533264,0.18737171590328217,0.18800470232963562,0.10888652503490448,0.014449385926127434,0.07976792752742767,0.0014580375282093883],[0.21604637801647186,0.08556236326694489,0.14720264077186584,0.07611988484859467,0.07150886952877045,0.03855915367603302,0.0033637136220932007,0.11250001192092896,0.19926966726779938,0.1022958979010582,0.2526462972164154,0.14655663073062897,0.024228738620877266,0.034567397087812424,0.0932217463850975,0.15406793355941772,0.04143628850579262,0.14533346891403198,-0.05282408744096756,-0.18775735795497894,-0.20380549132823944,-0.04849211126565933,0.1827705055475235,0.169114351272583,-0.13329176604747772,0.13412955403327942,-0.04287305474281311,0.0852588415145874,0.10968539863824844,0.2388347089290619,0.0066172657534480095,0.25760456919670105,0.047691501677036285,0.20975543558597565,0.01891409046947956,0.08991065621376038,-0.06281034648418427,0.18075090646743774,-0.13323046267032623,0.10920213907957077,-0.36116743087768555,0.2018515169620514,0.17162637412548065,-0.08915885537862778,0.12105117738246918,0.09579261392354965,0.26025596261024475,0.012554152868688107,-0.006142034195363522,-0.03851355239748955],[0.25254547595977783,-0.018137792125344276,0.24999581277370453,0.08636079728603363,0.0056353467516601086,0.4574904143810272,-0.01819504238665104,0.1927308589220047,0.01457920204848051,0.2612695097923279,-0.11160605400800705,0.011989845894277096,0.1764405369758606,-0.008380308747291565,-0.02302853763103485,0.1731458604335785,-0.06678295135498047,0.09159507602453232,0.24831096827983856,-0.0546562634408474,0.0947626456618309,0.1927572637796402,0.00967392511665821,0.17904840409755707,0.0877571627497673,0.047897934913635254,-0.08042033761739731,-0.07158788293600082,-0.13324759900569916,0.14559172093868256,-0.11161108314990997,-0.0754559189081192,-0.016885027289390564,-0.0031901849433779716,0.01894868165254593,-0.13228175044059753,0.1831919550895691,-0.032835353165864944,-0.09980560094118118,0.05719328671693802,-0.3933493196964264,-0.09302566200494766,-0.12748441100120544,0.19767506420612335,-0.01715223677456379,-0.0223943293094635,0.2133600413799286,0.007423273287713528,-0.002783246571198106,-0.036202359944581985],[-0.11602199077606201,0.05201830714941025,-0.15090279281139374,0.06425938755273819,-0.184959277510643,0.04655095562338829,0.19739145040512085,0.1663745492696762,-0.0759122222661972,0.14883877336978912,-0.1465355008840561,-0.18645019829273224,0.18702265620231628,-0.16117525100708008,0.05377889797091484,0.05644546076655388,0.04097045212984085,-0.15296734869480133,0.19048018753528595,-0.17268577218055725,0.17879259586334229,0.1907457560300827,0.07742244750261307,-0.13735154271125793,-0.010676815174520016,0.05244070664048195,0.20069091022014618,0.1278391033411026,-0.10554904490709305,0.09110831469297409,-0.030189750716090202,-0.14321275055408478,-0.16637766361236572,-0.015911908820271492,-0.07662311941385269,0.13058063387870789,0.10960909724235535,0.12013835459947586,-0.12607310712337494,0.06052051857113838,0.07857806235551834,-0.10556267946958542,0.08693606406450272,-0.019991852343082428,0.040059249848127365,0.12259911745786667,-0.0834847167134285,-0.16928717494010925,0.09459763765335083,0.19661900401115417],[0.04765762761235237,0.07019802182912827,0.07720668613910675,0.04440277814865112,-0.13046897947788239,0.4888967275619507,0.025180615484714508,-0.1736653745174408,-0.18009687960147858,0.33348801732063293,0.060985758900642395,-0.046025898307561874,0.05754740163683891,-0.1945226639509201,0.08395524322986603,0.037264302372932434,0.11477283388376236,0.10373609513044357,0.21161513030529022,-0.055287349969148636,-0.1329997032880783,0.005508442874997854,-0.08213828504085541,0.015443176962435246,0.06366673111915588,0.09959766268730164,-0.09570926427841187,0.21121135354042053,-0.12641699612140656,0.06973177194595337,0.10967592149972916,0.16936878859996796,-0.13878977298736572,0.10703277587890625,-0.054447777569293976,-0.1319415122270584,-0.14415067434310913,0.14618872106075287,0.004432619083672762,0.2609318494796753,-0.42985060811042786,0.10636034607887268,0.0822465568780899,-0.09048300981521606,0.051354411989450455,0.2063983529806137,0.4352618455886841,0.22736188769340515,0.08343096822500229,0.07200493663549423],[0.16111312806606293,-0.14989493787288666,-0.08227453380823135,-0.16766604781150818,-0.08971203118562698,0.5256506204605103,-0.11469370871782303,0.16329489648342133,-0.10047393292188644,0.2434450387954712,-0.14825040102005005,0.1934390664100647,0.10120288282632828,0.006214183755218983,0.23416563868522644,-0.03530978783965111,-0.16331437230110168,0.16724494099617004,-0.05115698650479317,0.001225289306603372,0.023232439532876015,-0.033411648124456406,0.05411892011761665,0.18176604807376862,-0.13119949400424957,0.01646166667342186,-0.12949731945991516,0.1622992604970932,-0.11083881556987762,0.2305128276348114,-0.1502557247877121,0.04148602858185768,-0.05769849568605423,0.2332281470298767,0.02953660488128662,-0.06615106016397476,-0.08729389309883118,0.07344196736812592,0.07315298169851303,0.11095278710126877,-0.5520395040512085,0.19474658370018005,0.005106900818645954,0.07016410678625107,-0.13887161016464233,0.22802898287773132,0.30522558093070984,-0.00872982107102871,0.0990876778960228,-0.19785022735595703],[0.02874237857758999,-0.19524195790290833,-0.08830415457487106,0.19933833181858063,-0.11639318615198135,0.6118461489677429,-0.05369555577635765,0.021838050335645676,-0.05682918801903725,0.029883679002523422,0.20395083725452423,-0.10296802967786789,-0.02450580522418022,-0.1751347780227661,0.20661483705043793,-0.029845213517546654,0.15577395260334015,-0.13303129374980927,0.18313099443912506,-0.10497217625379562,0.007630068343132734,0.2166454941034317,0.1758819967508316,-0.11187505722045898,0.1155521497130394,0.190251424908638,0.23832426965236664,0.17366550862789154,0.1608504205942154,0.1355053037405014,-0.016274040564894676,-0.02535519190132618,-0.015933159738779068,-0.053070977330207825,0.0307091623544693,-0.18531018495559692,-0.02169923670589924,0.19144093990325928,-0.10382299870252609,-0.026302270591259003,-0.23531748354434967,0.0063355471938848495,0.04647185280919075,-0.05825505405664444,-0.03666921705007553,0.0846855416893959,0.3461284339427948,0.010461817495524883,0.004122085403650999,-0.05093799903988838],[-0.05613909661769867,-0.07359465956687927,0.20432394742965698,0.148005411028862,-0.003990684635937214,-0.02163618616759777,-0.12709172070026398,0.12231449782848358,0.02827875316143036,0.1351957470178604,-0.008594230748713017,-0.08526422828435898,0.14888663589954376,0.19598890841007233,0.11830553412437439,-0.01486548688262701,0.11393957585096359,-0.16515637934207916,0.23656412959098816,-0.1340785175561905,0.05944502353668213,0.24305126070976257,0.1644822508096695,-0.030263643711805344,-0.19444119930267334,0.1371660828590393,0.17599600553512573,0.05160112679004669,-0.10723168402910233,0.0039021309930831194,0.17005249857902527,0.22418367862701416,-0.06506789475679398,-0.10154376924037933,-0.03286288306117058,-0.08792858570814133,-0.017751336097717285,-0.11315888911485672,0.13791033625602722,0.20925453305244446,-0.3386278450489044,0.10625219345092773,-0.1781749427318573,-0.09256783127784729,-0.012498744763433933,0.18711906671524048,0.15638870000839233,0.0970165953040123,0.0024191609118133783,-0.17404621839523315],[0.18746037781238556,0.16074639558792114,0.09746536612510681,0.09895166009664536,0.05924546718597412,0.18232466280460358,0.18419738113880157,0.045714911073446274,0.10587771981954575,-0.033943887799978256,0.1270231455564499,-0.09017963707447052,-0.05898067355155945,-0.10922592878341675,0.2329580932855606,-0.1542343646287918,-0.10865164548158646,0.0011544539593160152,0.04505474492907524,-0.1493837982416153,-0.21389834582805634,0.06404633820056915,0.03558875620365143,0.02306078001856804,-0.18187899887561798,0.1455938071012497,0.1642160266637802,0.09049160033464432,0.17024822533130646,-0.04808679595589638,0.050685904920101166,0.10164521634578705,0.03892924636602402,0.21209867298603058,-0.1090909093618393,0.18690496683120728,-0.06703078001737595,0.07287798076868057,0.2446611374616623,-0.06480489671230316,-0.3333210051059723,-0.06413763761520386,0.13004611432552338,0.1627301424741745,0.09869211912155151,-0.0002248368109576404,0.26014259457588196,0.0880669578909874,0.18941964209079742,0.06448282301425934],[0.18988372385501862,0.08138331025838852,0.10187186300754547,-0.06232946738600731,0.15046440064907074,0.10954068601131439,0.045630041509866714,0.09181580692529678,-0.026945339515805244,0.10440967231988907,-0.11337560415267944,-0.06750902533531189,-0.05395596846938133,-0.11081989854574203,0.06916993856430054,-0.09769191592931747,0.0890187993645668,0.12775884568691254,0.23586829006671906,-0.1570855975151062,-0.045337267220020294,0.1705351024866104,0.14036151766777039,-0.17719204723834991,0.034259993582963943,-0.06499180197715759,0.08310595154762268,0.1704021692276001,0.07437427341938019,0.08846352994441986,-0.1457972228527069,0.0701136440038681,0.058817680925130844,-0.009089321829378605,0.14568562805652618,0.1125408411026001,0.17790190875530243,0.18641537427902222,0.06397031992673874,0.2369960993528366,-0.1273210048675537,0.09235401451587677,-0.019814325496554375,-0.01254143938422203,0.1479925662279129,-0.009112352505326271,0.3308405876159668,0.24593259394168854,-0.02431553229689598,-0.08703251928091049],[0.17630867660045624,-0.11817656457424164,0.17143115401268005,0.19243352115154266,0.15978001058101654,0.5310726165771484,-0.0003521216567605734,0.04538393020629883,-0.08488189429044724,0.00738194165751338,0.2411978542804718,-0.18702881038188934,0.10590904951095581,-0.17986071109771729,0.04365482181310654,-0.031439635902643204,0.06332018971443176,-0.02154475636780262,0.14705845713615417,0.11765642464160919,-0.0018355381907895207,0.10177481919527054,0.08192162215709686,0.1319224238395691,-0.03081773780286312,0.11137840896844864,-0.0988771989941597,0.07078677415847778,0.1088697761297226,0.20447418093681335,0.2323961704969406,-0.07262463867664337,-0.1387418806552887,-0.11325350403785706,-0.12552447617053986,-0.16220416128635406,-0.19835977256298065,-0.18254365026950836,0.146450936794281,0.19790050387382507,-0.34305310249328613,0.1388729214668274,-0.19402055442333221,-0.02000392973423004,-0.06647481769323349,-0.06547505408525467,0.06652435660362244,-0.04451335594058037,0.0019732911605387926,0.19562937319278717]],"biases":[0.20304721593856812,-0.08883395045995712,0.22651307284832,-0.059537507593631744,0.18689444661140442,-0.10625036805868149,0.0475446954369545,0.05213017016649246,0.1598798781633377,-0.05353168770670891,-0.018677370622754097,0.25155773758888245,0.08462441712617874,0.05208883434534073,0.09636280685663223,-0.1207214891910553,0.14568862318992615,-0.1590229570865631,0.10832555592060089,-0.023731613531708717,-0.012568837963044643,-0.1361231505870819,0.2006434053182602,0.05641842633485794,0.00013687457249034196,0.04585329443216324,0.14316889643669128,-0.10714945942163467,-0.11625750362873077,0.06769642978906631,0.06700985133647919,0.1465756893157959,-0.12783697247505188,0.16043369472026825,0.14788754284381866,-0.13136844336986542,0.0016069657867774367,0.1844516396522522,-0.04612957313656807,-0.0627981573343277,0.2579154968261719,-0.020118018612265587,-0.13780544698238373,-0.05298558250069618,-0.002511550672352314,-0.14864671230316162,0.20301155745983124,-0.032776594161987305,0.04422285035252571,-0.10709855705499649]},{"weights":[[-0.16688144207000732,0.03940366953611374,-0.057530540972948074,-0.04213174805045128,-0.044477108865976334,-0.254739373922348,-0.2707808017730713,-0.20804128050804138,-0.276442289352417,-0.2106902301311493,-0.0219618771225214,-0.30182018876075745,-0.1630314737558365,0.00330505333840847,-0.179876908659935,-0.1469363272190094,-0.13560602068901062,0.04307077080011368,-0.22241757810115814,-0.07081785053014755,-0.18482430279254913,-0.1486247181892395,-0.23716947436332703,-0.01009354554116726,-0.2945044934749603,-0.08781212568283081,-0.15383820235729218,-0.08997400850057602,-0.16022954881191254,-0.13963674008846283,-0.1702347695827484,-0.3542145788669586,-0.2789781987667084,-0.3564104437828064,-0.09781692922115326,-0.2350519448518753,-0.1721140295267105,-0.040360353887081146,-0.2739577293395996,-0.03304842486977577,-0.0673481896519661,-0.016946297138929367,-0.17161794006824493,-0.30772414803504944,-0.10576390475034714,-0.27493640780448914,-0.11109563708305359,0.00637235539034009,-0.16875816881656647,-0.18952657282352448],[-0.028712958097457886,-0.24473226070404053,0.04372905567288399,0.03368762880563736,-0.27195629477500916,-0.037279658019542694,-0.04862755909562111,-0.2117498517036438,-0.2748427391052246,-0.02495894767343998,-0.17084535956382751,-0.28682941198349,-0.20597440004348755,-0.15927498042583466,-0.18427908420562744,-0.032673947513103485,-0.33045509457588196,0.037846725434064865,-0.10440228879451752,-0.21929684281349182,0.04521100968122482,-0.040464334189891815,-0.10038801282644272,0.02168911322951317,-0.22917981445789337,-0.18779751658439636,-0.04774276912212372,-0.28986433148384094,-0.30150920152664185,-0.07016553729772568,-0.1952805370092392,-0.12877368927001953,-0.3091617822647095,-0.230604350566864,-0.08533450961112976,-0.3416929543018341,-0.2968432307243347,-0.2798888087272644,-0.09897646307945251,-0.2428072839975357,-0.07037453353404999,-0.05875802040100098,-0.2624179720878601,-0.23103410005569458,-0.2817995548248291,-0.0015840763226151466,-0.0662887766957283,-0.01103940512984991,-0.17649254202842712,-0.1687670201063156],[-0.17199626564979553,-0.288107693195343,-0.2579590380191803,-0.2650599777698517,-0.12837602198123932,-0.21733002364635468,-0.120145283639431,-0.09091170877218246,-0.24148085713386536,-0.31270965933799744,-0.30116701126098633,-0.28127679228782654,-0.2597885727882385,-0.1527247577905655,0.046346962451934814,-0.014359669759869576,-0.2526760399341583,-0.21483935415744781,-0.18127600848674774,-0.1994687169790268,0.04984669387340546,-0.31179603934288025,0.02653701975941658,0.034329988062381744,-0.14748919010162354,0.05392530560493469,-0.03639262542128563,0.00310479081235826,0.06268950551748276,-0.30119532346725464,-0.10156557708978653,-0.3360542356967926,-0.05768676847219467,-0.17746834456920624,-0.2827637791633606,-0.10673180967569351,0.004952747840434313,-0.10550443083047867,0.04198350012302399,-0.22018510103225708,-0.3274464011192322,-0.2998480796813965,-0.22926509380340576,-0.3433378338813782,-0.1265290528535843,-0.30079084634780884,-0.04249271750450134,-0.10344906151294708,0.03041515126824379,-0.12874330580234528],[-0.04489832744002342,-0.12079095095396042,0.03018011897802353,-0.018621906638145447,-0.22383911907672882,-0.0033140911255031824,0.07448530942201614,-0.2063302844762802,0.03695404902100563,-0.1017274558544159,-0.12699687480926514,-0.10827431082725525,-0.28790661692619324,-0.1722630113363266,-0.024226969107985497,0.09725493937730789,-0.12597088515758514,0.0009284078259952366,-0.1725066900253296,-0.20237739384174347,0.08406092971563339,-0.011543205007910728,-0.24113322794437408,-0.08455939590930939,-0.05204886943101883,-0.13435447216033936,-0.30771490931510925,-0.2540586590766907,-0.307474285364151,-0.27434229850769043,-0.27731943130493164,-0.17572163045406342,-0.24466024339199066,-0.25052475929260254,-0.25791803002357483,0.075151726603508,-0.09069737792015076,-0.3205375373363495,-0.10798593610525131,-0.34191709756851196,-0.18266181647777557,-0.024835651740431786,-0.1035546064376831,-0.03939896076917648,-0.06899100542068481,-0.27976059913635254,-0.2781120538711548,-0.23295216262340546,-0.31550103425979614,-0.04789338260889053],[0.03209654614329338,-0.05830773338675499,-0.31699079275131226,0.05257897824048996,-0.06567471474409103,-0.0814855769276619,-0.2760191559791565,-0.26702043414115906,-0.05753159523010254,-0.2960779666900635,-0.2589081823825836,-0.10305698961019516,-0.1223466694355011,-0.18592356145381927,-0.081088125705719,0.024416116997599602,-0.1244550421833992,-0.1157209500670433,-0.04719515144824982,-0.32934603095054626,-0.10524773597717285,-0.2934142053127289,-0.09917629510164261,-0.2952018082141876,-0.1162034124135971,-0.15815559029579163,-0.16382794082164764,-0.24573706090450287,-0.162603959441185,0.04066387191414833,-0.039446379989385605,-0.3356045186519623,-0.03487727791070938,-0.24812836945056915,-0.06058063730597496,-0.21564266085624695,-0.24847586452960968,-0.06447716802358627,0.010214708745479584,-0.2439381629228592,-0.19909732043743134,0.01430324837565422,-0.09215497225522995,-0.2119227945804596,-0.08258997648954391,-0.1363299936056137,-0.0952221229672432,-0.29443565011024475,-0.24005897343158722,-0.21133548021316528],[0.006709946785122156,-0.10419613867998123,-0.10127297043800354,-0.050909072160720825,-0.31629300117492676,-0.003325588069856167,-0.12251834571361542,-0.282927006483078,-0.14315325021743774,-0.07416180521249771,0.025884609669446945,-0.31786373257637024,-0.1352248638868332,-0.10649169236421585,-0.0670330747961998,-0.0017888305010274053,-0.12278833985328674,-0.10403519868850708,-0.15776030719280243,0.021727534011006355,-0.04177006706595421,-0.2844807505607605,-0.208075150847435,-0.16565819084644318,-0.20685690641403198,-0.3247038722038269,-0.023945340886712074,-0.13002632558345795,-0.16600188612937927,-0.020146500319242477,0.026440471410751343,-0.13914446532726288,0.055066414177417755,-0.3471680283546448,-0.34544074535369873,-0.1520061492919922,-0.17612101137638092,0.004854923579841852,-0.0361618734896183,-0.35672706365585327,-0.07897330820560455,-0.0045087565667927265,-0.18134652078151703,-0.17478787899017334,-0.3199673593044281,-0.1735580861568451,-0.19934067130088806,-0.3228749632835388,0.008246753364801407,-0.2016541063785553],[0.051521800458431244,-0.3075058162212372,-0.3094243109226227,-0.008343889378011227,-0.2680530250072479,-0.1635114550590515,-0.025759566575288773,-0.005308155436068773,-0.012673813849687576,-0.09668933600187302,-0.24307852983474731,-0.04277646541595459,-0.004163338802754879,0.049032196402549744,-0.23072689771652222,-0.2572706937789917,0.03896333649754524,-0.055629197508096695,-0.0371384359896183,-0.07053068280220032,-0.32383671402931213,-0.0013660318218171597,-0.11390690505504608,-0.193930983543396,-0.28924787044525146,-0.09239466488361359,-0.24880237877368927,-0.11858565360307693,-0.31694576144218445,-0.09232372790575027,-0.13974475860595703,-0.1145557388663292,0.048383042216300964,-0.1360360085964203,-0.30113375186920166,-0.20135629177093506,-0.17194098234176636,-0.2178231030702591,-0.15539319813251495,-0.20785604417324066,-0.3009159564971924,-0.009500868618488312,-0.23012441396713257,-0.34845733642578125,-0.14878086745738983,-0.32902270555496216,-0.24494118988513947,-0.07516425848007202,0.02868509478867054,-0.24534180760383606],[0.07957495003938675,-0.051858413964509964,-0.05918104946613312,0.09029232710599899,-0.18194085359573364,0.027233438566327095,0.021215321496129036,-0.05066022276878357,-0.12209060043096542,-0.29229220747947693,-0.18263110518455505,-0.29318565130233765,-0.2459031194448471,-0.2676923871040344,-0.32392966747283936,-0.23203423619270325,-0.30085355043411255,-0.034732598811388016,-0.24682164192199707,-0.08601880073547363,-0.2741023004055023,-0.2752538323402405,-0.19720181822776794,-0.10183719545602798,-0.3278983533382416,-0.2350587695837021,-0.00787399522960186,-0.23562663793563843,-0.1546187698841095,-0.16193974018096924,-0.003192567965015769,-0.33092689514160156,-0.24526359140872955,-0.1364033967256546,0.03984842821955681,-0.1926232874393463,-0.014960824511945248,-0.10857255756855011,-0.38913607597351074,-0.08898273855447769,-0.28270575404167175,-0.1495869904756546,0.11825694143772125,-0.37317320704460144,-0.19413822889328003,-0.22205647826194763,-0.3260413110256195,0.056808970868587494,-0.0774860829114914,-0.21945124864578247],[-0.25901713967323303,-0.30421486496925354,-0.2597675621509552,-0.2206280380487442,0.028732648119330406,0.1056041270494461,-0.24302878975868225,-0.20100174844264984,-0.27023887634277344,-0.2856712341308594,-0.06060387194156647,-0.12259625643491745,-0.07038471102714539,-0.10612369328737259,-0.2793132960796356,-0.19775843620300293,-0.3091099262237549,0.06338523328304291,-0.22114421427249908,-0.028178904205560684,0.017586354166269302,-0.21360129117965698,-0.04180220887064934,-0.2075866460800171,-0.1285260021686554,-0.2481105476617813,-0.23224997520446777,-0.030205992981791496,-0.12085354328155518,-0.290961891412735,-0.2414717674255371,0.028024382889270782,-0.13886785507202148,-0.0877772867679596,-0.09057866781949997,-0.0550951287150383,-0.23189035058021545,-0.3199656307697296,-0.22880549728870392,-0.14227278530597687,-0.09186545014381409,-0.3078097701072693,0.12664534151554108,-0.16202916204929352,-0.14050854742527008,0.025759397074580193,-0.2071327418088913,-0.036182701587677,-0.2832777798175812,-0.019928891211748123],[-0.1389356404542923,-0.20111910998821259,0.09411893039941788,-0.20173035562038422,0.05957452580332756,-0.19546543061733246,-0.06070108339190483,-0.2667347490787506,-0.19908897578716278,-0.00612940127030015,-0.30951961874961853,-0.13038566708564758,-0.22759048640727997,-0.2495485097169876,-0.22686441242694855,-0.0857279822230339,-0.26294344663619995,0.021529899910092354,0.05825978145003319,-0.28063875436782837,-0.2908109128475189,-0.28412389755249023,-0.13877837359905243,-0.06036420911550522,-0.12643030285835266,-0.12595224380493164,-0.1292765885591507,-0.2060069888830185,0.014779770746827126,-0.2735655903816223,-0.15424999594688416,-0.23376263678073883,-0.2777651846408844,0.044347118586301804,-0.16790637373924255,-0.2665703296661377,0.06075933948159218,-0.1720886379480362,-0.22832362353801727,-0.21157881617546082,-0.2895313501358032,-0.27642253041267395,0.013746135868132114,-0.16945691406726837,-0.0004254010273143649,-0.28316429257392883,0.059814151376485825,-0.1178441271185875,-0.028228700160980225,-0.14786362648010254],[-0.20863376557826996,-0.281766802072525,-0.2563440203666687,-0.08540322631597519,-0.3596899211406708,-0.13680921494960785,-0.11840169876813889,-0.015935143455863,-0.24857650697231293,-0.16313505172729492,-0.2467300444841385,-0.03979161009192467,-0.0189040619879961,-0.2322046458721161,-0.31320720911026,-0.03522023558616638,-0.3323841094970703,-0.058298587799072266,-0.05612849444150925,-0.25305798649787903,-0.2462736964225769,-0.1024666577577591,-0.24607746303081512,-0.3179231584072113,0.03879844397306442,-0.0012702863896265626,-0.10236640274524689,-0.2843889594078064,-0.14840887486934662,-0.015225207433104515,0.01612725295126438,-0.11063569784164429,-0.04777329042553902,-0.045858029276132584,-0.23792076110839844,-0.175267294049263,-0.20804160833358765,-0.10202812403440475,-0.0038692743983119726,0.00135125988163054,-0.16616839170455933,0.00581499096006155,-0.0030649942345917225,-0.028598196804523468,-0.23561519384384155,-0.1300300508737564,-0.22125178575515747,-0.256542444229126,-0.07398077100515366,-0.3258284032344818],[-0.005770748946815729,0.008361946791410446,-0.23297858238220215,-0.28088250756263733,-0.2293953001499176,-0.05273299291729927,-0.24897165596485138,0.003423819551244378,-0.30697643756866455,0.016440659761428833,-0.24441859126091003,-0.27174103260040283,-0.11372121423482895,-0.02970624342560768,-0.3078347146511078,-0.1053658202290535,-0.32865282893180847,-0.21770620346069336,-0.0431971475481987,-0.31400418281555176,-0.188839852809906,-0.11865401268005371,-0.14528177678585052,-0.08916031569242477,-0.21302279829978943,-0.1622026413679123,-0.16481651365756989,-0.29783737659454346,-0.051180701702833176,-0.007257472723722458,-0.0840647891163826,0.012314639054238796,-0.06954436749219894,-0.05959102138876915,-0.3097437918186188,-0.16176913678646088,-0.05963481590151787,-0.16434729099273682,-0.2956198453903198,-0.23102277517318726,0.0034116196911782026,-0.2984347343444824,0.08568320423364639,-0.18987706303596497,-0.279533326625824,0.038667235523462296,-0.31098219752311707,0.04719031602144241,-0.005505249369889498,-0.03740142285823822],[0.04075433313846588,-0.32735902070999146,-0.15907791256904602,-0.014905361458659172,-0.0728759914636612,0.08549412339925766,0.036526065319776535,-0.23018112778663635,-0.09206640720367432,-0.32603394985198975,-0.3185604512691498,-0.21221588551998138,-0.013133133761584759,-0.34062543511390686,-0.03086240403354168,-0.04869954660534859,-0.3173530399799347,-0.1764092892408371,-0.1636900156736374,-0.1943526417016983,-0.21543766558170319,-0.24709589779376984,-0.12399719655513763,-0.14011412858963013,-0.15117298066616058,-0.0171984676271677,-0.3387576937675476,-0.060633204877376556,-0.13884912431240082,-0.18673093616962433,0.06911848485469818,-0.09830059856176376,-0.16641321778297424,-0.04171360284090042,-0.204783633351326,-0.1130891963839531,-0.23770414292812347,-0.17159873247146606,-0.04494619742035866,-0.005659680347889662,0.013909857720136642,-0.12586718797683716,0.015145025216042995,-0.2526426315307617,-0.26393356919288635,-0.06674821674823761,-0.14012594521045685,-0.10489554703235626,-0.2616160213947296,-0.11719256639480591],[-0.0011294621508568525,-0.15002284944057465,-0.027546655386686325,-0.2244187295436859,-0.15716107189655304,0.066390261054039,0.021101320162415504,-0.16919060051441193,-0.04096561297774315,-0.07816695421934128,-0.07224421948194504,-0.09318292140960693,-0.28091150522232056,-0.050855882465839386,-0.1607416272163391,-0.028360825031995773,-0.2618381679058075,-0.31636548042297363,-0.2508094906806946,-0.15719614923000336,-0.26232561469078064,-0.16826942563056946,-0.04195988550782204,-0.059266429394483566,0.0019618330989032984,-0.003941926173865795,-0.2156996726989746,-0.04465468227863312,-0.2712533175945282,-0.23921415209770203,-0.19278347492218018,-0.07474911957979202,-0.051452405750751495,-0.3197791576385498,-0.3339885175228119,-0.132815420627594,-0.3049980103969574,-0.3382551074028015,-0.2796434164047241,-0.13894836604595184,-0.18976444005966187,0.042103562504053116,0.09519191831350327,-0.34800320863723755,-0.052937813103199005,-0.003534856950864196,-0.2719452381134033,-0.10166719555854797,-0.10698283463716507,-0.2662450671195984],[-0.1352473795413971,-0.04084911197423935,-0.133271723985672,0.05043424293398857,-0.1649949550628662,-0.17446482181549072,-0.17288441956043243,-0.23660998046398163,-0.1596253365278244,-0.32261937856674194,0.024515459313988686,-0.22877179086208344,0.001714765327051282,-0.30757397413253784,-0.07336752861738205,-0.121261365711689,-0.28304699063301086,-0.2534680664539337,-0.03951556235551834,-0.2788239121437073,-0.23565590381622314,0.004615627694875002,-0.2747017741203308,-0.21288219094276428,-0.09554413706064224,0.024478260427713394,-0.2651202380657196,-0.1881551593542099,-0.04302804544568062,0.03113003633916378,0.0451398640871048,-0.2544604241847992,-0.0020011458545923233,-0.1415495127439499,-0.021640313789248466,-0.2075667828321457,-0.2619437277317047,-0.07429764419794083,-0.23359978199005127,-0.22775384783744812,-0.32631853222846985,0.016689488664269447,0.056760065257549286,-0.22130708396434784,-0.2641587257385254,-0.21900977194309235,-0.3301050364971161,-0.054724596440792084,-0.08264413475990295,-0.21067959070205688],[-0.06547890603542328,-0.1602468639612198,-0.04598028585314751,0.019744277000427246,-0.33665046095848083,0.07299789041280746,0.05920034274458885,-0.3536404073238373,-0.008632762357592583,-0.020916931331157684,-0.029853040352463722,-0.1823982149362564,0.06956713646650314,-0.1548638790845871,-0.17664708197116852,0.06743825227022171,-0.233583003282547,0.014718984253704548,-0.26146358251571655,0.024306315928697586,-0.11218268424272537,-0.34915289282798767,-0.09993958473205566,-0.12842798233032227,-0.28166934847831726,-0.09710671007633209,-0.24658320844173431,-0.287638396024704,-0.06256885826587677,-0.30922892689704895,-0.2130638211965561,-0.11357174813747406,-0.06203818321228027,-0.2893165349960327,-0.2709604501724243,-0.0019249818287789822,-0.318491131067276,0.02391367219388485,-0.19032087922096252,-0.19812312722206116,-0.002674537943676114,-0.12376265227794647,-0.1904820203781128,-0.21436507999897003,-0.062262725085020065,-0.2791544198989868,-0.2497936338186264,-0.29529571533203125,-0.3063308894634247,-0.20704810321331024],[0.00625521270558238,-0.02058526873588562,-0.10568631440401077,-0.294039785861969,-0.18771480023860931,-0.2499016970396042,-0.26522475481033325,-0.2879739999771118,-0.24915672838687897,-0.009568904526531696,-0.23867136240005493,-0.22413603961467743,-0.033423177897930145,-0.11957618594169617,0.02494923025369644,-0.1503896862268448,-0.13647319376468658,0.010389016009867191,-0.042741451412439346,-0.15207059681415558,-0.09638719260692596,-0.3887024521827698,-0.0038019237108528614,-0.1617167443037033,-0.22186192870140076,0.020626991987228394,-0.3724871873855591,-0.13744570314884186,-0.2388053983449936,0.05458664894104004,0.06573335081338882,-0.16849802434444427,0.03497302159667015,-0.10865424573421478,-0.11614896357059479,-0.3172694742679596,-0.04213883355259895,-0.10073009133338928,-0.23661097884178162,-0.3034941256046295,-0.12536627054214478,-0.13622991740703583,-0.028271079063415527,-0.15479440987110138,-0.38620495796203613,-0.3628888428211212,-0.1512152999639511,-0.21681606769561768,0.02535325288772583,-0.21232014894485474],[-0.22460141777992249,-0.12271330505609512,-0.15538553893566132,0.004040008410811424,-0.13376960158348083,-0.180036723613739,0.0158846378326416,-0.25859910249710083,-0.2594316005706787,0.0001723427849356085,-0.11796756833791733,-0.0998057872056961,-0.08154204487800598,-0.3037351667881012,-0.3198690414428711,0.08670906722545624,-0.07514965534210205,0.07067620754241943,-0.07958335429430008,-0.2672896683216095,-0.10366351902484894,0.0183279849588871,-0.30394071340560913,-0.27919846773147583,-0.23286111652851105,-0.2949824929237366,-0.30499571561813354,-0.1958465278148651,-0.012803515419363976,-0.009596018120646477,-0.03175118938088417,-0.20975609123706818,-0.1384243667125702,-0.14074164628982544,-0.31456923484802246,-0.0705706924200058,0.017779245972633362,-0.20481033623218536,-0.31728848814964294,-0.12430122494697571,-0.15283150970935822,-0.04394310340285301,-0.12343017756938934,-0.2895846664905548,-0.15600505471229553,-0.22148586809635162,-0.09480348974466324,0.05557796359062195,-0.021580783650279045,-0.2620216906070709],[-0.14647279679775238,-0.05489562824368477,-0.12781091034412384,-0.04824433475732803,-0.01252274215221405,-0.2600068747997284,-0.32831865549087524,-0.3456791639328003,-0.035270240157842636,-0.09210725128650665,-0.09599913656711578,-0.0746954157948494,-0.0412677638232708,-0.36109933257102966,-0.04252081364393234,-0.014600485563278198,-0.2241058349609375,-0.1304255723953247,0.016152601689100266,0.004681730642914772,-0.21986836194992065,-0.38291236758232117,-0.14133001863956451,-0.22945231199264526,0.0022271492052823305,-0.04072865471243858,-0.1672811508178711,-0.06592506170272827,-0.28055092692375183,-0.1474292278289795,0.0316796600818634,-0.09382986277341843,-0.2226599156856537,-0.05350492522120476,-0.2418740838766098,-0.23504820466041565,-0.18986789882183075,-0.049567870795726776,-0.13110113143920898,-0.41451576352119446,-0.011315272189676762,-0.27972158789634705,0.019626421853899956,-0.32287049293518066,-0.03436620905995369,-0.14487116038799286,-0.036635927855968475,-0.32919010519981384,-0.3338809013366699,-0.0773547887802124],[-0.004358900245279074,-0.29742199182510376,0.03426690027117729,-0.22555342316627502,-0.11718221008777618,-0.04169074073433876,-0.010261615738272667,-0.12666401267051697,0.006736902520060539,-0.05179886892437935,-0.23140758275985718,-0.03873266279697418,-0.20492234826087952,-0.10710238665342331,-0.2081748992204666,0.00987732782959938,-0.030899735167622566,-0.2603066861629486,-0.32313159108161926,-0.30660080909729004,-0.1459812968969345,-0.3196244239807129,-0.21097472310066223,0.031024761497974396,-0.09615851193666458,-0.3181246519088745,-0.12616227567195892,-0.24696926772594452,-0.0259675532579422,0.07845623791217804,-0.11007317900657654,-0.14453141391277313,-0.07862305641174316,0.023318037390708923,-0.07791509479284286,-0.045587651431560516,-0.1663101315498352,-0.1027451902627945,-0.31459876894950867,-0.05976603180170059,-0.15366403758525848,0.04644915834069252,0.0455603301525116,-0.10814023017883301,-0.28980183601379395,-0.28274601697921753,-0.3405410945415497,-0.2431747168302536,-0.3035614490509033,-0.30058008432388306],[-0.1545611321926117,-0.208607017993927,-0.04943801090121269,-0.2618549168109894,-0.30320292711257935,-0.023747367784380913,-0.2795678675174713,-0.2509835958480835,-0.011274581775069237,0.013816661201417446,-0.11659102141857147,-0.015558090060949326,-0.05315038561820984,0.04083041474223137,-0.061158210039138794,-0.09790583699941635,-0.3408624231815338,-0.10365063697099686,-0.06135989725589752,-0.17229700088500977,-0.14833806455135345,-0.22162535786628723,-0.3251919448375702,-0.25009599328041077,0.009064356796443462,0.004027654882520437,-0.08583355695009232,-0.15397657454013824,-0.18977800011634827,-0.1132156178355217,0.05293438211083412,-0.2741146385669708,-0.16981594264507294,-0.018227430060505867,-0.26273655891418457,-0.30626368522644043,-0.23643054068088531,-0.13408391177654266,-0.044190242886543274,-0.00636844290420413,-0.1511310338973999,-0.12470079958438873,-0.1405799686908722,-0.3506619930267334,-0.2747674882411957,-0.2900426685810089,-0.3454225957393646,0.0647488608956337,0.007100262213498354,-0.24259138107299805],[0.014529253356158733,-0.2948761284351349,-0.050412267446517944,-0.1554962396621704,-0.2309340238571167,0.01568382978439331,-0.1064956858754158,-0.324799507856369,-0.17472457885742188,-0.3284277319908142,-0.313850075006485,-0.13169854879379272,-0.3162675201892853,-0.07321669161319733,-0.16166971623897552,0.029169773682951927,-0.25579217076301575,-0.16523610055446625,-0.04627982899546623,0.06154336407780647,-0.20757140219211578,-0.25017249584198,0.024702182039618492,-0.055646296590566635,-0.029817402362823486,-0.12307773530483246,-0.18294470012187958,0.03604447469115257,0.024036884307861328,-0.06772404164075851,-0.21449176967144012,-0.23347410559654236,-0.08666937798261642,-0.06676724553108215,-0.16773858666419983,-0.30404362082481384,-0.010211195796728134,-0.08955200761556625,-0.30676716566085815,-0.08307615667581558,-0.1933978796005249,-0.09300024807453156,0.04696992412209511,-0.2899392247200012,-0.15548808872699738,-0.013669624924659729,-0.17556403577327728,-0.2475292980670929,-0.21003910899162292,-0.3058501183986664],[-0.09012153744697571,-0.18629871308803558,-0.046155769377946854,-0.24246171116828918,-0.30258920788764954,0.04160916060209274,-0.06906156986951828,-0.14469490945339203,-0.010443486273288727,-0.2672807574272156,-0.27499982714653015,-0.3151905834674835,-0.2548668086528778,-0.15837892889976501,